#include "speech_commands_model.h"

conv_layer_t conv_layer0; // Capa convolucional 1
conv_layer_t conv_layer1; // Capa convolucional 2
dense_layer_t dense_layer0; // Capa densa 1


conv_layer_t init_conv_layer0(void){

  static filter_t filtros[16];
  
  static const float weights0[]={
    -0.061752159148454666, 0.06506730616092682, 0.1548875868320465, 
    -0.08246088027954102, -0.4759175777435303, -0.5498347878456116, 
    0.20506040751934052, 0.6166502237319946, 0.3269699215888977, 
  
  };
  static filter_t filter0 = {1, 3, weights0, -0.009379925206303596};
  filtros[0]=filter0;
    
  static const float weights1[]={
    0.5277472734451294, 0.2801428735256195, -0.49899110198020935, 
    0.41473954916000366, 0.18012116849422455, -0.3140975534915924, 
    0.14761511981487274, 0.3141638934612274, -0.22550886869430542, 
  
  };
  static filter_t filter1 = {1, 3, weights1, -0.0014360857894644141};
  filtros[1]=filter1;
    
  static const float weights2[]={
    -0.23241452872753143, -0.5099539756774902, -0.488821804523468, 
    0.404703289270401, 0.46737733483314514, 0.22292861342430115, 
    -0.1605232059955597, -0.14129815995693207, 0.03928849846124649, 
  
  };
  static filter_t filter2 = {1, 3, weights2, 0.03598508611321449};
  filtros[2]=filter2;
    
  static const float weights3[]={
    -0.4587996304035187, -0.04049692302942276, 0.5791171193122864, 
    -0.4439602494239807, 0.30130353569984436, 0.45197927951812744, 
    0.15676812827587128, -0.1014995127916336, 0.14662449061870575, 
  
  };
  static filter_t filter3 = {1, 3, weights3, -0.0016396465944126248};
  filtros[3]=filter3;
    
  static const float weights4[]={
    -0.44689297676086426, 0.22647684812545776, -0.21186664700508118, 
    0.19379585981369019, -0.03234583139419556, 0.5740907192230225, 
    0.6731171607971191, 0.14934198558330536, 0.6014378070831299, 
  
  };
  static filter_t filter4 = {1, 3, weights4, -0.007166359107941389};
  filtros[4]=filter4;
    
  static const float weights5[]={
    -0.1690908670425415, 0.43866050243377686, 0.333888977766037, 
    0.7208194136619568, 0.017530402168631554, -0.12242111563682556, 
    0.6205423474311829, 0.2546100914478302, -0.15708699822425842, 
  
  };
  static filter_t filter5 = {1, 3, weights5, -0.0064165955409407616};
  filtros[5]=filter5;
    
  static const float weights6[]={
    -0.03211170807480812, 0.01095753163099289, -0.053599510341882706, 
    0.26686418056488037, 0.33683037757873535, 0.9843398332595825, 
    0.3641514182090759, 0.2783002555370331, 0.58089280128479, 
  
  };
  static filter_t filter6 = {1, 3, weights6, -0.007448967080563307};
  filtros[6]=filter6;
    
  static const float weights7[]={
    0.3982398211956024, -0.1740637868642807, -0.19808094203472137, 
    -0.2434215098619461, -0.39606451988220215, 0.18247616291046143, 
    0.0748995915055275, 0.058109674602746964, 0.37718063592910767, 
  
  };
  static filter_t filter7 = {1, 3, weights7, 0.09391245245933533};
  filtros[7]=filter7;
    
  static const float weights8[]={
    -0.33234450221061707, 0.1814577579498291, -0.030134690925478935, 
    -0.028926566243171692, 0.2517050802707672, -0.1836102306842804, 
    0.4680178165435791, -0.5168349742889404, 0.2065124809741974, 
  
  };
  static filter_t filter8 = {1, 3, weights8, -0.000798531633336097};
  filtros[8]=filter8;
    
  static const float weights9[]={
    -0.4149986207485199, -0.45631149411201477, -0.12815283238887787, 
    0.1593257188796997, 0.03915591910481453, 0.6996322274208069, 
    0.3773377239704132, 1.0752516984939575, 0.6515020728111267, 
  
  };
  static filter_t filter9 = {1, 3, weights9, -0.0028152489103376865};
  filtros[9]=filter9;
    
  static const float weights10[]={
    0.13088352978229523, 0.21841934323310852, 0.45485442876815796, 
    0.19159354269504547, 0.50937420129776, 0.2135414034128189, 
    -0.6900495290756226, -0.6382140517234802, -0.269857794046402, 
  
  };
  static filter_t filter10 = {1, 3, weights10, 0.15895649790763855};
  filtros[10]=filter10;
    
  static const float weights11[]={
    -0.223489910364151, 0.19979219138622284, 0.2380157709121704, 
    -0.27300190925598145, -0.40728116035461426, 0.08579962700605392, 
    0.4913630485534668, -0.20458196103572845, -0.34003934264183044, 
  
  };
  static filter_t filter11 = {1, 3, weights11, 0.2485189437866211};
  filtros[11]=filter11;
    
  static const float weights12[]={
    -0.07362386584281921, 0.29825252294540405, 0.05946720764040947, 
    -0.02554595097899437, 0.5410428047180176, -0.24984438717365265, 
    0.1006864532828331, 0.17930176854133606, -0.3847615420818329, 
  
  };
  static filter_t filter12 = {1, 3, weights12, 0.0053686946630477905};
  filtros[12]=filter12;
    
  static const float weights13[]={
    0.07354811578989029, 0.03222872316837311, 0.5649373531341553, 
    -0.6454943418502808, -0.34939566254615784, 0.13563591241836548, 
    -0.7619860768318176, -0.7806539535522461, 0.06750691682100296, 
  
  };
  static filter_t filter13 = {1, 3, weights13, 0.0425356924533844};
  filtros[13]=filter13;
    
  static const float weights14[]={
    0.3534209430217743, -0.015430375933647156, -0.21190328896045685, 
    -0.15853111445903778, -0.22213390469551086, -0.08618266135454178, 
    -0.14703090488910675, -0.08450731635093689, 0.5138773322105408, 
  
  };
  static filter_t filter14 = {1, 3, weights14, 0.0138087198138237};
  filtros[14]=filter14;
    
  static const float weights15[]={
    0.5546578168869019, 0.6753997206687927, 0.29943689703941345, 
    0.8412325382232666, 0.5081496238708496, 0.7183593511581421, 
    0.18752235174179077, 0.4237905442714691, 0.33030593395233154, 
  
  };
  static filter_t filter15 = {1, 3, weights15, -0.013005981221795082};
  filtros[15]=filter15;
    
  conv_layer_t layer = {16,filtros};
  return layer;
}
  

conv_layer_t init_conv_layer1(void){

  static filter_t filtros[32];
  
  static const float weights0[]={
    0.12455331534147263, 0.08689845353364944, -0.06874359399080276, 
    0.3525150418281555, 0.022857388481497765, 0.14906534552574158, 
    -0.7169334292411804, -0.21908797323703766, -0.45657265186309814, 
  
    0.11352020502090454, 0.0346430279314518, -0.14286527037620544, 
    -0.08932605385780334, -0.051480866968631744, 0.1411667913198471, 
    0.013705933466553688, -0.03237270563840866, 0.19697503745555878, 
  
    0.03363419696688652, -0.20540578663349152, -0.16250407695770264, 
    0.3026430308818817, -0.13408543169498444, -0.22470170259475708, 
    0.2729145586490631, -0.08761170506477356, 0.01685631461441517, 
  
    0.03585191071033478, -0.09186393022537231, 0.23625290393829346, 
    -0.07906292378902435, 0.05156895890831947, -0.13845126330852509, 
    -0.21401828527450562, 0.17317835986614227, -0.012054610066115856, 
  
    -0.2315632551908493, -0.2103855162858963, 0.007800338324159384, 
    0.30879437923431396, -0.14741238951683044, -0.032849229872226715, 
    -0.07844023406505585, 0.1484520137310028, -0.05655767023563385, 
  
    -0.03419524058699608, -0.0624675378203392, 0.1168416291475296, 
    0.16725169122219086, 0.14529301226139069, 0.11447859555482864, 
    -0.3681595027446747, -0.018154647201299667, -0.06240817531943321, 
  
    -0.23284125328063965, 0.03839286416769028, 0.16952525079250336, 
    0.06389346718788147, 0.012813976034522057, -0.05626862123608589, 
    0.08310607075691223, 0.06875942647457123, -0.007311326917260885, 
  
    -0.3068496286869049, -0.016023213043808937, 0.031752631068229675, 
    0.12109372764825821, -0.08994974195957184, 0.21018542349338531, 
    0.04500066488981247, -0.08798813074827194, -0.29379549622535706, 
  
    -0.10440916568040848, -0.26648780703544617, -0.0705983117222786, 
    0.5492706298828125, 0.158261239528656, 0.028478458523750305, 
    -0.3011435270309448, 0.22372575104236603, 0.1470090001821518, 
  
    -0.1323915719985962, 0.142879456281662, 0.13856647908687592, 
    -0.1722867786884308, -0.10189405083656311, -0.026348141953349113, 
    0.05796602740883827, 0.1779414266347885, -0.08044568449258804, 
  
    0.14888577163219452, -0.1170668676495552, 0.19894245266914368, 
    0.10464352369308472, 0.08972861617803574, -0.08543306589126587, 
    0.21776404976844788, 0.3042493760585785, 0.3238791227340698, 
  
    0.15235860645771027, -0.1274203658103943, -0.22795680165290833, 
    0.25504517555236816, 0.1483485847711563, -0.005057306960225105, 
    0.30638018250465393, -0.031673550605773926, -0.08438148349523544, 
  
    -0.08152758330106735, 0.1001269668340683, -0.018905406817793846, 
    0.0054121776483953, 0.011501404456794262, 0.19733113050460815, 
    -0.22235874831676483, -0.05288306251168251, 0.26704978942871094, 
  
    0.036568403244018555, -0.09720567613840103, 0.001284340163692832, 
    -0.009214755147695541, 0.2978958785533905, 0.17672564089298248, 
    0.7887868285179138, -0.1855437159538269, 0.2174319475889206, 
  
    -0.22863605618476868, 0.3005722463130951, 0.03123812936246395, 
    -0.36298495531082153, 0.05250459164381027, -0.05164314806461334, 
    -0.3376084864139557, 0.05816930532455444, -0.34489327669143677, 
  
    -0.091814324259758, -0.04443732649087906, 0.1649026870727539, 
    0.15326187014579773, -0.11466862261295319, -0.032673247158527374, 
    0.004056748002767563, -0.07830951362848282, 0.16892153024673462, 
  
  };
  static filter_t filter0 = {16, 3, weights0, -0.019495194777846336};
  filtros[0]=filter0;
    
  static const float weights1[]={
    -0.34631142020225525, 0.06180308014154434, 0.36912864446640015, 
    -0.05998649448156357, -0.2498457282781601, 0.01756560057401657, 
    -0.12314368039369583, -0.05089534819126129, -0.16944505274295807, 
  
    -0.1273677498102188, -0.37777432799339294, -0.06730292737483978, 
    -0.004456416703760624, -0.13545316457748413, -0.07021136581897736, 
    0.17450323700904846, -0.2003556787967682, 0.017947053536772728, 
  
    -0.027086105197668076, 0.19319921731948853, 0.12077375501394272, 
    -0.05036184936761856, -0.08519647270441055, -0.02678937278687954, 
    -0.2774050831794739, -0.15502925217151642, 0.033859480172395706, 
  
    -0.3344886302947998, 0.02840711735188961, -0.02196757309138775, 
    0.05800626799464226, 0.21561676263809204, 0.36160728335380554, 
    0.03322242200374603, -0.09229888021945953, 0.2224315106868744, 
  
    -0.13031578063964844, -0.024202222004532814, 0.1591167449951172, 
    -0.04599983990192413, 0.12254521995782852, 0.12931221723556519, 
    -0.03246437758207321, 0.14077550172805786, 0.14710122346878052, 
  
    -0.2352946251630783, -0.3163098692893982, 0.018218832090497017, 
    0.03133051097393036, 0.020578531548380852, 0.15368707478046417, 
    -0.0423746183514595, -0.17604444921016693, 0.04356510564684868, 
  
    -0.16675542294979095, 0.06322916597127914, 0.04637198522686958, 
    -0.07581576704978943, -0.12283487617969513, 0.20661166310310364, 
    0.03825690224766731, 0.0739976167678833, 0.0759270116686821, 
  
    -0.05295505374670029, 0.136935293674469, 0.22024600207805634, 
    -0.119777150452137, 0.016054237261414528, 0.31342554092407227, 
    -0.06663301587104797, 0.2707734704017639, -0.07615557312965393, 
  
    0.16124193370342255, 0.24440377950668335, 0.3707028329372406, 
    0.4125116765499115, 0.4263833165168762, 0.15425804257392883, 
    0.004670736379921436, 0.04966067150235176, 0.3749558925628662, 
  
    -0.2517242133617401, 0.059990108013153076, 0.2793008089065552, 
    -0.024814967066049576, 0.0923084244132042, 0.26426801085472107, 
    0.019065139815211296, 0.13544560968875885, 0.15270985662937164, 
  
    -0.6757526993751526, -0.1439848691225052, -0.19890691339969635, 
    -0.13266219198703766, -0.07583257555961609, 0.22395539283752441, 
    -0.06151155009865761, 0.04572971165180206, 0.08179876208305359, 
  
    0.09455011039972305, -0.13470877707004547, 0.18698278069496155, 
    -0.12016398459672928, 0.10384368896484375, -0.0783175528049469, 
    -0.3549531400203705, -0.04473583400249481, 0.3335840702056885, 
  
    -0.3005262017250061, -0.15893544256687164, 0.05476636439561844, 
    0.03715919330716133, -0.24136795103549957, 0.27191096544265747, 
    0.04202505573630333, 0.01142220851033926, 0.16139870882034302, 
  
    0.005428834352642298, 0.18292787671089172, -0.14716020226478577, 
    -0.0966382771730423, 0.22221757471561432, 0.26207926869392395, 
    -0.3211066424846649, -0.2111818790435791, -0.20205186307430267, 
  
    0.028664302080869675, 0.29748791456222534, 0.18067680299282074, 
    -0.10410980880260468, -0.023579377681016922, 0.2033962607383728, 
    0.02279621735215187, 0.3365384340286255, -0.25350597500801086, 
  
    -0.20644445717334747, -0.19107815623283386, -0.1207098439335823, 
    -0.006159699056297541, -0.03453156724572182, 0.14955255389213562, 
    -0.010996022261679173, -0.023188797757029533, 0.05537937209010124, 
  
  };
  static filter_t filter1 = {16, 3, weights1, -0.04356777295470238};
  filtros[1]=filter1;
    
  static const float weights2[]={
    0.3904374837875366, 0.014462798833847046, 0.30938318371772766, 
    0.3817596137523651, 0.05531131476163864, 0.05133399739861488, 
    0.15619546175003052, -0.07317329943180084, 0.043293554335832596, 
  
    0.10661515593528748, -0.14405381679534912, -0.0011978474212810397, 
    -0.038038332015275955, -0.10860148072242737, -0.14352811872959137, 
    -0.05051754415035248, 0.12587857246398926, -0.05743001401424408, 
  
    -0.12311647832393646, -0.3728073537349701, -0.2698558568954468, 
    0.5135840773582458, 0.13460196554660797, 0.017066683620214462, 
    0.04220561310648918, -0.11764999479055405, 0.07095680385828018, 
  
    -0.15059050917625427, -0.1517956703901291, -0.14899079501628876, 
    -0.030771499499678612, -0.15811991691589355, 0.1286265105009079, 
    -0.1114245280623436, -0.21565142273902893, -0.22259002923965454, 
  
    -0.17635013163089752, -0.07566992193460464, 0.21190159022808075, 
    -0.02807222492992878, -0.008897307328879833, 0.13366305828094482, 
    0.01643071137368679, -0.14510463178157806, -0.2538713812828064, 
  
    0.18993711471557617, -0.05935261771082878, -0.18136286735534668, 
    0.03128134086728096, 0.09309054166078568, 0.08423110097646713, 
    0.08719410002231598, -0.09489812701940536, -0.14425987005233765, 
  
    -0.11396197974681854, -0.2483735978603363, -0.02800099179148674, 
    0.10130536556243896, 0.07396655529737473, 0.13785125315189362, 
    -0.033780477941036224, -0.18661324679851532, -0.05499676614999771, 
  
    0.0031092220451682806, -0.0003673445025924593, 0.2491176724433899, 
    0.13840150833129883, 0.023065008223056793, -0.0781470462679863, 
    -0.06511037796735764, -0.1133979931473732, -0.1381639540195465, 
  
    0.19757480919361115, -0.4630929231643677, 0.05684864893555641, 
    0.20267139375209808, -0.055612705647945404, -0.0059791672974824905, 
    0.25744083523750305, -0.009909814223647118, -0.12911902368068695, 
  
    0.021947577595710754, -0.2215191125869751, -0.08387108147144318, 
    0.034020908176898956, 0.0013787283096462488, 0.13654489815235138, 
    0.04516586288809776, -0.25267526507377625, -0.1384890079498291, 
  
    0.049892619252204895, 0.4414912462234497, 0.19099396467208862, 
    0.015164457261562347, -0.06375860422849655, 0.12447414547204971, 
    0.3117786943912506, 0.19464479386806488, 0.2013571709394455, 
  
    0.4188830852508545, -0.014234613627195358, -0.18829186260700226, 
    -0.21831455826759338, 0.010499238967895508, -0.18764503300189972, 
    -0.05097757279872894, 0.17654290795326233, -0.08903925865888596, 
  
    -0.09652344882488251, 0.017529645934700966, -0.14663457870483398, 
    0.11998454481363297, 0.15763458609580994, 0.058893926441669464, 
    0.09830143302679062, 0.11774428188800812, 0.17186228930950165, 
  
    0.1816747635602951, 0.23517592251300812, 0.05450014770030975, 
    -0.05155312642455101, -0.38632962107658386, -0.31549808382987976, 
    -0.31047433614730835, 0.5329577326774597, 0.055093519389629364, 
  
    -0.3970865309238434, 0.24795040488243103, 0.18701206147670746, 
    0.12869320809841156, -0.04114801809191704, -0.3470301628112793, 
    -0.04346034303307533, -0.1882934272289276, -0.1747143566608429, 
  
    0.04184525087475777, -0.14615489542484283, -0.08135168999433517, 
    0.09144299477338791, -0.09767761826515198, 0.08044081926345825, 
    0.15789416432380676, 0.04877427965402603, -0.026042748242616653, 
  
  };
  static filter_t filter2 = {16, 3, weights2, 0.054319512099027634};
  filtros[2]=filter2;
    
  static const float weights3[]={
    -0.18271632492542267, -0.20392999053001404, -0.47125235199928284, 
    -0.4131947159767151, -0.09293992072343826, 0.003331804182380438, 
    -0.23756979405879974, -0.2133539766073227, -0.2599215507507324, 
  
    0.21984994411468506, 0.042889297008514404, 0.03102063201367855, 
    0.18948626518249512, 0.14728637039661407, 0.17094595730304718, 
    0.17685912549495697, -0.06780920922756195, 0.22802706062793732, 
  
    -0.1101054847240448, 0.09626544266939163, -0.270311564207077, 
    -0.4346470832824707, -0.16347713768482208, 0.13741247355937958, 
    -0.5516045689582825, -0.34783414006233215, 0.0035023356322199106, 
  
    0.03516436740756035, 0.2308141142129898, 0.1940123587846756, 
    -0.0945316031575203, 0.11779305338859558, 0.0327739417552948, 
    0.0016380682354792953, 0.008309801109135151, 0.0703926831483841, 
  
    -0.05730481445789337, -0.06712042540311813, 0.10082115232944489, 
    -0.16098655760288239, 0.019977446645498276, -0.046173930168151855, 
    0.013823353685438633, 0.1472429484128952, 0.08923239260911942, 
  
    -0.012991557829082012, 0.034909937530756, 0.13151313364505768, 
    0.13486026227474213, 0.11386299878358841, 0.013706582598388195, 
    0.1121913343667984, 0.021210728213191032, 0.07570121437311172, 
  
    -0.026807503774762154, -0.05152520537376404, -0.009618674404919147, 
    -0.01824992522597313, 0.021136276423931122, 0.13726411759853363, 
    0.10843200236558914, 0.12585116922855377, -0.0502912774682045, 
  
    0.07168804854154587, 0.10782240331172943, 0.10974220186471939, 
    -0.03352232277393341, 0.033332355320453644, 0.0992998480796814, 
    0.028055330738425255, 0.011276954784989357, 0.2652592658996582, 
  
    -0.06854300200939178, 0.15634219348430634, 0.2363661825656891, 
    -0.24549773335456848, 0.0999155044555664, 0.1609669029712677, 
    -0.05338531732559204, -0.1917448192834854, 0.10678540915250778, 
  
    0.011488382704555988, 0.03619372099637985, 0.1124432235956192, 
    -0.1874280869960785, 0.07483968138694763, 0.015708548948168755, 
    0.00961576122790575, -0.036739740520715714, -0.17259271442890167, 
  
    -0.3685479462146759, -0.049714408814907074, 0.1650610864162445, 
    -0.17575040459632874, -0.03826885297894478, 0.14776329696178436, 
    -0.11475499719381332, -0.1136113852262497, 0.009752681478857994, 
  
    -0.17621293663978577, 0.07078394293785095, -0.027074534446001053, 
    -0.12167505919933319, -0.16251742839813232, 0.14623010158538818, 
    -0.15518267452716827, 0.0928129032254219, 0.10557819157838821, 
  
    0.09585472196340561, 0.044609490782022476, 0.2045312076807022, 
    0.18807213008403778, -0.024606121703982353, 0.01096473541110754, 
    0.267492413520813, -0.02542809583246708, 0.16499656438827515, 
  
    -0.13892820477485657, 0.004499591421335936, -0.22680090367794037, 
    -0.4095902740955353, -0.061249129474163055, -0.347500205039978, 
    -0.5007280111312866, 0.10508323460817337, -0.051977381110191345, 
  
    -0.02463076263666153, 0.12204079329967499, -0.060487162321805954, 
    0.017602937296032906, 0.19325794279575348, 0.044976796954870224, 
    -0.14803248643875122, -0.12619271874427795, 0.18258817493915558, 
  
    0.03702379763126373, -0.10831613093614578, 0.07630874216556549, 
    0.006491774693131447, 0.0171827245503664, 0.006374938879162073, 
    -0.051741428673267365, 0.06841664761304855, 0.02365626022219658, 
  
  };
  static filter_t filter3 = {16, 3, weights3, 0.10631757229566574};
  filtros[3]=filter3;
    
  static const float weights4[]={
    -0.6862442493438721, -0.3140929937362671, -0.455444872379303, 
    -0.01984196901321411, -0.07551022619009018, -0.23387660086154938, 
    0.38953420519828796, 0.2294645756483078, 0.15318912267684937, 
  
    0.10143359750509262, -0.14510348439216614, 0.17636388540267944, 
    -0.33613908290863037, -0.1776486039161682, 0.05532292649149895, 
    -0.07592714577913284, -0.035376954823732376, -0.08201701194047928, 
  
    0.3186447024345398, 0.011709444224834442, -0.10162496566772461, 
    -0.5043641328811646, -0.4639210104942322, -0.15431450307369232, 
    0.3155384361743927, 0.20749647915363312, -0.36130663752555847, 
  
    -0.040907151997089386, 0.07971889525651932, 0.1795683652162552, 
    -0.06475614756345749, 0.1843183934688568, 0.2051127552986145, 
    -0.04852770268917084, -0.1327742040157318, -0.15519262850284576, 
  
    -0.013964337296783924, 0.18200530111789703, 0.3045192062854767, 
    -0.8729000687599182, -0.17516909539699554, -0.03590003028512001, 
    0.1720452904701233, -0.08043468743562698, -0.18012191355228424, 
  
    0.03739342838525772, 0.00020221693557687104, 0.11910147964954376, 
    -0.46375104784965515, 0.02989753894507885, 0.06689181923866272, 
    0.1598718762397766, 0.028722800314426422, -0.11431341618299484, 
  
    -0.15703079104423523, 0.10399193316698074, 0.20853348076343536, 
    -0.6923490166664124, -0.03231525048613548, 0.12555880844593048, 
    0.1279856264591217, -0.12941771745681763, -0.24064162373542786, 
  
    -0.32437026500701904, -0.24515584111213684, -0.10512646287679672, 
    -0.1903311163187027, -0.4997551739215851, -0.15535683929920197, 
    0.043691109865903854, 0.13852889835834503, -0.03972243517637253, 
  
    -0.07675564289093018, -0.09866022318601608, 0.447248637676239, 
    -0.9920455813407898, -0.27566733956336975, -0.042705733329057693, 
    0.11223845928907394, 0.1278456151485443, 0.1967405080795288, 
  
    0.012030326761305332, -0.006668417248874903, 0.17244459688663483, 
    -0.7722633481025696, -0.33677008748054504, -0.3166702389717102, 
    0.1509799063205719, -0.013189573772251606, -0.023562032729387283, 
  
    -0.04383627325296402, 0.15887391567230225, 0.04658496752381325, 
    0.1430470496416092, 0.14104962348937988, 0.36927005648612976, 
    -0.32701224088668823, -0.2540625333786011, -0.023370342329144478, 
  
    0.049493491649627686, -0.01131878700107336, -0.11835218966007233, 
    0.22869892418384552, 0.2722867727279663, 0.20627300441265106, 
    0.07761209458112717, 0.4222868084907532, 0.355211079120636, 
  
    -0.20469841361045837, -0.10153026133775711, 0.3129950165748596, 
    -0.6259356141090393, -0.11179236322641373, 0.1891883909702301, 
    0.030999695882201195, -0.21655622124671936, -0.12041573226451874, 
  
    0.35352757573127747, 0.04542560502886772, 0.12863801419734955, 
    0.503898024559021, 0.549390435218811, 0.3443676829338074, 
    -0.9326187968254089, -0.13768233358860016, -0.036487821489572525, 
  
    -0.31588271260261536, -0.3236919939517975, -0.21391677856445312, 
    -0.4440678656101227, -0.657711923122406, -0.30207204818725586, 
    0.07889832556247711, 0.31268924474716187, -0.0806746855378151, 
  
    0.027422679588198662, 0.10223650187253952, 0.2368515282869339, 
    -0.40269890427589417, 0.009403318166732788, 0.14878898859024048, 
    -0.026709306985139847, -0.18090738356113434, -0.28747838735580444, 
  
  };
  static filter_t filter4 = {16, 3, weights4, 0.09986705332994461};
  filtros[4]=filter4;
    
  static const float weights5[]={
    -0.1352911740541458, -0.25638461112976074, 0.09412617236375809, 
    0.05824761837720871, 0.16311778128147125, 0.20471517741680145, 
    -0.2918277978897095, -0.041315093636512756, 0.034820228815078735, 
  
    -0.32328730821609497, 0.057129375636577606, 0.13679850101470947, 
    0.038167890161275864, -0.05880066379904747, -0.022928185760974884, 
    0.029795072972774506, -0.10662639886140823, 0.02615985833108425, 
  
    0.02794291451573372, 0.2878603935241699, 0.2705921232700348, 
    0.30642783641815186, 0.25315770506858826, 0.5897166728973389, 
    0.13068443536758423, 0.3044340908527374, -0.03255793824791908, 
  
    0.04617542400956154, -0.12098199129104614, 0.10385335236787796, 
    -0.0946710854768753, -0.048265766352415085, 0.22422519326210022, 
    -0.17815978825092316, -0.16483637690544128, 0.08100903779268265, 
  
    -0.2925873100757599, 0.0008556847460567951, -0.07939986139535904, 
    0.06716878712177277, 0.0470244400203228, 0.034965336322784424, 
    0.002074330346658826, -0.12083913385868073, 0.01709911972284317, 
  
    -0.1395653635263443, -0.04242090880870819, 0.04887699335813522, 
    0.0030826504807919264, -0.07373618334531784, -0.0006991486879996955, 
    0.002742146607488394, 0.018603917211294174, 0.16411636769771576, 
  
    -0.13485582172870636, 0.026137931272387505, -0.07051502913236618, 
    0.06343144923448563, -0.0576113685965538, 0.21441800892353058, 
    0.11538239568471909, 0.030817827209830284, -0.003936767112463713, 
  
    -0.36230066418647766, 0.10054218024015427, 0.28727808594703674, 
    -0.21944567561149597, 0.009290089830756187, 0.16551297903060913, 
    0.16995854675769806, -0.08581888675689697, 0.014765212312340736, 
  
    -0.20850878953933716, -0.07293887436389923, -0.3357755243778229, 
    0.24490277469158173, -0.3240891396999359, -0.041695963591337204, 
    -0.07393201440572739, -0.07062788307666779, -0.22998584806919098, 
  
    -0.1887134611606598, -0.1242670789361, 0.01601952500641346, 
    0.18730665743350983, 0.17028413712978363, 0.08812663704156876, 
    -0.17514494061470032, 0.08448817580938339, -0.028937898576259613, 
  
    0.3489002287387848, 0.4725522994995117, 0.23479542136192322, 
    -0.2909252345561981, 0.029835369437932968, 0.19138656556606293, 
    -0.11125793308019638, -0.13736924529075623, 0.09617949277162552, 
  
    0.38696590065956116, 0.16033637523651123, -0.22486485540866852, 
    -0.14407430589199066, -0.48867928981781006, -0.16053450107574463, 
    -0.323777973651886, -0.22027401626110077, -0.04123546555638313, 
  
    -0.24400852620601654, -0.0015908627538010478, 0.07786045968532562, 
    -0.26101037859916687, -0.31645411252975464, 0.1231963112950325, 
    -0.19830474257469177, 0.10299646109342575, -0.07358171045780182, 
  
    0.22653742134571075, 0.22475263476371765, -0.18788374960422516, 
    -0.278556764125824, 0.21896833181381226, 0.19329725205898285, 
    0.21863789856433868, -0.06114496663212776, -0.06497577577829361, 
  
    -0.3432765603065491, 0.03322828933596611, 0.23536249995231628, 
    -0.05233996734023094, -0.04226542264223099, -0.06910407543182373, 
    -0.12475062161684036, -0.09001196920871735, -0.28479138016700745, 
  
    -0.18572953343391418, -0.06740669161081314, -0.047751735895872116, 
    -0.0884866788983345, -0.09500130265951157, 0.2076435536146164, 
    0.11425821483135223, -0.003416075138375163, 0.059431713074445724, 
  
  };
  static filter_t filter5 = {16, 3, weights5, 0.008619517087936401};
  filtros[5]=filter5;
    
  static const float weights6[]={
    -0.357755184173584, -0.16970200836658478, 0.08847159147262573, 
    0.33352383971214294, 0.2901270389556885, 0.23660233616828918, 
    0.02729138359427452, 0.2856687903404236, 0.08926913887262344, 
  
    -0.1959882229566574, -0.16960002481937408, 0.04080182686448097, 
    -0.07688058912754059, -0.15367819368839264, 0.14121480286121368, 
    -0.19253511726856232, -0.23642292618751526, 0.13233190774917603, 
  
    -0.11267303675413132, -0.024892887100577354, 0.11769317835569382, 
    0.37908026576042175, 0.43977686762809753, 0.7194363474845886, 
    0.1367480605840683, 0.530864417552948, 0.16230042278766632, 
  
    -0.14640162885189056, -0.45107302069664, 0.08361496031284332, 
    -0.05764501914381981, 0.14833155274391174, 0.1543409526348114, 
    -0.013788199983537197, -0.1686481386423111, 0.05687541514635086, 
  
    -0.19982707500457764, -0.287933349609375, -0.06865771114826202, 
    0.0914531722664833, 0.003352199215441942, 0.1366794854402542, 
    -0.03591720759868622, 0.04942967742681503, -0.051508303731679916, 
  
    -0.19112752377986908, -0.21382330358028412, -0.08831308782100677, 
    -0.27015721797943115, -0.19519071280956268, 0.031180433928966522, 
    0.1072162389755249, -0.024454789236187935, 0.10348154604434967, 
  
    -0.1539916694164276, -0.21107035875320435, -0.020696129649877548, 
    0.001751618692651391, 0.12027056515216827, 0.14914359152317047, 
    0.03248189762234688, 0.053025923669338226, 0.12263333797454834, 
  
    -0.26834213733673096, -0.1475440412759781, 0.14809037744998932, 
    0.2568426728248596, 0.17475759983062744, 0.20852212607860565, 
    -0.05728185921907425, -0.12242279201745987, 0.14922061562538147, 
  
    -0.19194790720939636, -0.6038583517074585, -0.23570948839187622, 
    0.19297316670417786, 0.03215499594807625, 0.0304399561136961, 
    0.4746406376361847, 0.18321336805820465, -0.07712304592132568, 
  
    -0.4861085116863251, -0.24021153151988983, -0.07474499940872192, 
    0.0914900079369545, 0.14010611176490784, 0.04781213775277138, 
    0.11654990911483765, -0.07075298577547073, -0.058524057269096375, 
  
    0.5254051089286804, 0.23730026185512543, -0.02246685139834881, 
    0.10988384485244751, 0.20700182020664215, 0.22759532928466797, 
    0.13552190363407135, 0.011611477471888065, 0.10956184566020966, 
  
    -0.1072891354560852, -0.23918108642101288, -0.19733156263828278, 
    -0.015341436490416527, -0.19830425083637238, -0.05917051061987877, 
    -0.24227990210056305, -0.12779468297958374, -0.12118969857692719, 
  
    -0.2037942260503769, -0.10608752816915512, -0.08574315160512924, 
    -0.021192586049437523, -0.19486498832702637, -0.07060028612613678, 
    0.20797057449817657, -0.2853936553001404, -0.020444510504603386, 
  
    0.10053395479917526, 0.0513460747897625, -0.2672857642173767, 
    -0.11290814727544785, -0.32159852981567383, -0.1398898810148239, 
    -0.15184037387371063, -0.07741589099168777, -0.10860714316368103, 
  
    -0.2922263741493225, -0.12766407430171967, 0.1487939953804016, 
    0.03653815761208534, -0.023933352902531624, 0.09559206664562225, 
    0.04596560820937157, 0.08043891191482544, -0.22015780210494995, 
  
    -0.06560371816158295, -0.0922069400548935, 0.03594814985990524, 
    -0.23672911524772644, 0.03751755505800247, 0.08742626756429672, 
    0.059629153460264206, 0.003696431638672948, 0.14707913994789124, 
  
  };
  static filter_t filter6 = {16, 3, weights6, -0.01440522726625204};
  filtros[6]=filter6;
    
  static const float weights7[]={
    0.1279531866312027, 0.07247614860534668, -0.18673378229141235, 
    0.1228865534067154, -0.40437403321266174, 0.14371763169765472, 
    -0.8748543858528137, -0.8388649225234985, -0.7095089554786682, 
  
    -0.10542651265859604, -0.4298305809497833, -0.6041913032531738, 
    0.15407933294773102, -0.15836572647094727, -0.36845725774765015, 
    0.11761671304702759, -0.1620115488767624, -0.5608054995536804, 
  
    0.3995707333087921, 0.44027307629585266, 0.7234395742416382, 
    0.3321457803249359, 0.09946349263191223, 0.4684496521949768, 
    0.12716233730316162, 0.24271276593208313, -0.1005571037530899, 
  
    -0.25107720494270325, -1.113014578819275, -0.8259660601615906, 
    -0.07893089950084686, -0.616568386554718, -0.09492851048707962, 
    -0.643310546875, -0.43159812688827515, 0.14370384812355042, 
  
    -0.16104736924171448, -0.30586668848991394, -0.33106207847595215, 
    0.05570029467344284, -0.3215445876121521, -0.520892322063446, 
    -0.17305071651935577, -0.52018141746521, -0.2584358751773834, 
  
    -0.033933453261852264, -0.40928950905799866, -0.6020378470420837, 
    0.20888039469718933, -0.04852110520005226, -0.4273475110530853, 
    -0.17471978068351746, -0.2831757664680481, -0.35171762108802795, 
  
    -0.14179648458957672, -0.5664624571800232, -0.683451771736145, 
    0.018525687977671623, -0.3294632136821747, -0.5012086033821106, 
    -0.30511823296546936, -0.6399955153465271, -0.385732501745224, 
  
    0.203303724527359, 0.4474526345729828, 0.26840534806251526, 
    0.31221088767051697, 0.32092681527137756, 0.36540189385414124, 
    0.32034072279930115, 0.2546911835670471, 0.11458208411931992, 
  
    -0.02852177433669567, -0.2054337114095688, -0.277046799659729, 
    0.40778037905693054, 0.08143272250890732, -0.9025522470474243, 
    0.5533233880996704, -0.4031008183956146, -0.009461093693971634, 
  
    -0.19303999841213226, -0.3202531933784485, -0.5008989572525024, 
    0.0395905002951622, -0.4088326096534729, -0.3081432282924652, 
    -0.614151656627655, -0.665820837020874, -0.4467836618423462, 
  
    0.28059476613998413, 0.18193238973617554, 0.1544433981180191, 
    0.2347293347120285, 0.2461196929216385, 0.24130502343177795, 
    0.4148394763469696, 0.3348548412322998, 0.36099356412887573, 
  
    0.42521119117736816, 0.5694694519042969, 0.5861802101135254, 
    0.6078293323516846, 0.5759770274162292, 0.48944228887557983, 
    0.5262101888656616, 0.39132624864578247, 0.5731707811355591, 
  
    0.23279538750648499, -0.33334288001060486, -0.7288432717323303, 
    0.27250686287879944, -0.29194527864456177, -0.40718069672584534, 
    0.2709575593471527, -0.16345945000648499, -0.3510419428348541, 
  
    -0.34862738847732544, -0.30436986684799194, -0.1986933797597885, 
    -0.0697859600186348, 0.6965445876121521, 0.7326712608337402, 
    -0.4222375154495239, 0.07949963957071304, 0.22069314122200012, 
  
    -0.0010416648583486676, 0.017950721085071564, 0.15419821441173553, 
    -0.15759021043777466, 0.2503047287464142, 0.6285440921783447, 
    0.15154817700386047, 0.024707481265068054, -0.17388220131397247, 
  
    -0.20210281014442444, -0.5725260972976685, -0.9453676342964172, 
    0.1759318709373474, -0.14860695600509644, -0.493173211812973, 
    0.04768318682909012, -0.37732192873954773, -0.4110603630542755, 
  
  };
  static filter_t filter7 = {16, 3, weights7, 0.44286173582077026};
  filtros[7]=filter7;
    
  static const float weights8[]={
    0.14958108961582184, 0.028355984017252922, -0.18184806406497955, 
    -0.24463553726673126, -0.23142127692699432, -0.18772388994693756, 
    -0.17679797112941742, -0.465837687253952, -0.14749132096767426, 
  
    -0.067109614610672, -0.1472616195678711, -0.1371244341135025, 
    0.1905999630689621, 0.161939799785614, -0.05374779552221298, 
    0.08610410243272781, 0.16422168910503387, -0.04083946719765663, 
  
    0.22209179401397705, -0.15851803123950958, -0.003289139363914728, 
    -0.23385775089263916, -0.5655872821807861, -0.19475530087947845, 
    -0.5105135440826416, -0.18151968717575073, -0.2685227394104004, 
  
    -0.1940329521894455, -0.4264366626739502, -0.46719124913215637, 
    -0.11217246204614639, 0.006706175860017538, 0.015212333761155605, 
    0.03402812406420708, 0.05819692835211754, 0.15208178758621216, 
  
    0.060640543699264526, -0.0546567477285862, -0.10035400837659836, 
    -0.08533637970685959, 0.07179421931505203, -0.009468845091760159, 
    -0.14767250418663025, 0.04754449054598808, 0.09330665320158005, 
  
    0.0887761190533638, -0.09680843353271484, -0.23852631449699402, 
    -0.0032824359368532896, -0.05535703897476196, 0.09073586016893387, 
    -0.024766748771071434, 0.10318034887313843, 0.058239519596099854, 
  
    0.10945799946784973, -0.048564013093709946, -0.023757534101605415, 
    -0.04261771962046623, 0.1432274729013443, 0.08495812863111496, 
    0.13983331620693207, 0.10598459094762802, 0.14301452040672302, 
  
    -0.0645594671368599, -0.041036207228899, 0.18641933798789978, 
    -0.3136428892612457, -0.09577375650405884, 0.01292845606803894, 
    -0.04421643167734146, 0.005293256137520075, 0.2990364730358124, 
  
    -0.01467953436076641, -0.10642556846141815, -0.3959372043609619, 
    -0.0009805007139220834, -0.05700649693608284, -0.07079204171895981, 
    -0.25704747438430786, 0.40904897451400757, 0.16500283777713776, 
  
    0.06311345100402832, -0.08197535574436188, -0.08363456279039383, 
    0.1351139098405838, 0.00459766061976552, -0.12169869989156723, 
    -0.1662290096282959, -0.033984098583459854, 0.07923656702041626, 
  
    -0.18193981051445007, -0.2658124566078186, -0.4920612573623657, 
    -0.18455781042575836, -0.3349533677101135, -0.2318829447031021, 
    -0.00770022626966238, -0.12728209793567657, -0.25808489322662354, 
  
    0.33251193165779114, -0.06869561970233917, 0.1728527545928955, 
    0.21786952018737793, 0.18368574976921082, 0.11916487663984299, 
    -0.006158644799143076, -0.1353490799665451, -0.033256471157073975, 
  
    -0.0835985541343689, -0.1815858632326126, -0.3733733296394348, 
    0.13259337842464447, 0.19535700976848602, -0.13935597240924835, 
    -0.05782849341630936, 0.14836385846138, 0.24737168848514557, 
  
    -0.2315058410167694, -0.17449508607387543, -0.4358920156955719, 
    -0.4347909390926361, -0.353910893201828, -0.4092588722705841, 
    0.11256707459688187, -0.09570221602916718, -0.29237473011016846, 
  
    -0.28701213002204895, -0.2994730770587921, 0.03967026621103287, 
    0.034901946783065796, -0.15325117111206055, -0.041173312813043594, 
    -0.004546078387647867, 0.03222011774778366, 0.23390929400920868, 
  
    0.15810035169124603, -0.18837392330169678, -0.22022801637649536, 
    0.24483422935009003, -0.02973325178027153, -0.004174004774540663, 
    0.14785411953926086, 0.08723680675029755, 0.04492532089352608, 
  
  };
  static filter_t filter8 = {16, 3, weights8, 0.29220500588417053};
  filtros[8]=filter8;
    
  static const float weights9[]={
    0.3941108286380768, 0.10733604431152344, -0.023142674937844276, 
    0.04180479422211647, 0.559981107711792, -0.3032325506210327, 
    0.7393537163734436, 0.9873318672180176, 0.5746825337409973, 
  
    -0.17351458966732025, 0.02490953728556633, 0.01006072573363781, 
    0.0894104614853859, 0.10436485707759857, -0.10171786695718765, 
    -0.10753216594457626, -0.24721302092075348, -0.4421580731868744, 
  
    0.5906556844711304, 0.3105417788028717, 0.1126580536365509, 
    0.10257909446954727, -0.5103088617324829, -0.4362405836582184, 
    0.6385943293571472, 0.6844387650489807, 0.4978172481060028, 
  
    0.012930409051477909, 0.3535084128379822, 0.05547860637307167, 
    -0.4073069989681244, 0.007036403752863407, 0.16869226098060608, 
    -0.5286690592765808, -0.30468660593032837, -0.29357531666755676, 
  
    0.250332772731781, 0.10288242995738983, 0.007062169723212719, 
    -0.22458499670028687, 0.017035098746418953, 0.2952618896961212, 
    -0.21237553656101227, -0.14541852474212646, -0.5406889319419861, 
  
    0.1884094476699829, 0.13022412359714508, 0.13245642185211182, 
    -0.030635353177785873, -0.0016181301325559616, 0.12265005707740784, 
    -0.4225820004940033, -0.2705565392971039, -0.1598188877105713, 
  
    0.16780808568000793, 0.16735054552555084, 0.10099977999925613, 
    -0.3250824213027954, -0.19641725718975067, 0.062260136008262634, 
    -0.37231260538101196, -0.24028082191944122, -0.6002441644668579, 
  
    0.25312894582748413, 0.10235264897346497, 0.15331995487213135, 
    0.4520450234413147, 0.05322246998548508, -0.20154692232608795, 
    0.1537177413702011, -0.2961321771144867, -0.32433998584747314, 
  
    0.35508090257644653, 0.30919262766838074, 0.1583833396434784, 
    0.1397673487663269, 0.19856585562229156, 0.016873084008693695, 
    0.03268193453550339, -0.2377891093492508, -0.3407520055770874, 
  
    0.24925607442855835, 0.1863950788974762, 0.011179404333233833, 
    -0.21732179820537567, -0.48991069197654724, -0.0836535394191742, 
    -0.013418671675026417, 0.08348080515861511, -0.4968743920326233, 
  
    0.062007803469896317, 0.09927424043416977, 0.020411698147654533, 
    0.18416360020637512, -0.02105109766125679, 0.0862555205821991, 
    -0.039036739617586136, 0.01733548939228058, 0.16632087528705597, 
  
    0.36555245518684387, -0.1610601544380188, -0.20775508880615234, 
    0.010223706252872944, 0.1252652406692505, 0.27200695872306824, 
    0.1192169040441513, -0.11711346358060837, 0.22584569454193115, 
  
    0.11262284219264984, 0.17494168877601624, 0.2834283113479614, 
    -0.14722032845020294, -0.13269305229187012, 0.005114101804792881, 
    -0.47755300998687744, -0.34564870595932007, -0.2778271734714508, 
  
    0.0911596342921257, 0.2785019278526306, 0.24827252328395844, 
    0.1310417354106903, 0.3195878267288208, 0.16743417084217072, 
    -0.16192923486232758, 0.2077416032552719, 0.5713187456130981, 
  
    -0.04928671196103096, 0.07791835069656372, 0.4146542549133301, 
    0.46667107939720154, 0.051745254546403885, -0.3658929765224457, 
    0.3872677683830261, -0.36348941922187805, -0.6698949337005615, 
  
    0.08117041736841202, 0.04363479092717171, -0.025162789970636368, 
    0.04079985246062279, -0.06710647791624069, 0.11854232847690582, 
    -0.14677566289901733, -0.44883236289024353, -0.3319053053855896, 
  
  };
  static filter_t filter9 = {16, 3, weights9, 0.015711622312664986};
  filtros[9]=filter9;
    
  static const float weights10[]={
    -0.29758208990097046, -0.28427204489707947, -0.22849801182746887, 
    0.08410544693470001, -0.1659097820520401, -0.2561098039150238, 
    -0.0127993980422616, 0.16397395730018616, -0.3069353401660919, 
  
    0.07272776961326599, 0.04070425033569336, -0.3116975724697113, 
    0.023826558142900467, 0.07366497069597244, -0.01507642399519682, 
    0.05095411092042923, 0.20821353793144226, 0.14495781064033508, 
  
    -0.20544494688510895, -0.28156405687332153, -0.2975624203681946, 
    0.06736362725496292, -0.06478337943553925, -0.15236158668994904, 
    -0.12352652102708817, -0.30053943395614624, 0.048319317400455475, 
  
    -0.19300386309623718, -0.10129275172948837, -0.050581008195877075, 
    0.17489641904830933, 0.12802651524543762, -0.23817749321460724, 
    0.025706373155117035, 0.2514086067676544, 0.028961626812815666, 
  
    -0.07768190652132034, -0.019772935658693314, -0.160884827375412, 
    -0.02924606017768383, -0.02480567805469036, -0.1162814274430275, 
    0.15552900731563568, -0.04787338525056839, 0.020644763484597206, 
  
    0.07156822830438614, -0.10228073596954346, -0.13666635751724243, 
    -0.015257883816957474, 0.05775249004364014, 0.05926873907446861, 
    -0.13826784491539001, 0.18701200187206268, -0.02652057074010372, 
  
    -0.01904570683836937, -0.1389327198266983, -0.20579712092876434, 
    -0.06565980613231659, 0.11947154998779297, -0.13886302709579468, 
    0.029054924845695496, 0.16035954654216766, 0.00786622054874897, 
  
    0.12030677497386932, 0.05901172384619713, 0.04437296837568283, 
    0.12150195240974426, -0.030705712735652924, -0.16053993999958038, 
    -0.024986116215586662, -0.11660434305667877, -0.011182946152985096, 
  
    -0.14808860421180725, 0.2173430621623993, 0.17395177483558655, 
    0.14531700313091278, 0.2629539668560028, 0.22961460053920746, 
    0.2698000967502594, 0.07085707783699036, 0.33685794472694397, 
  
    -0.09667069464921951, -0.12709510326385498, -0.27755698561668396, 
    0.09435033798217773, -0.11547883599996567, -0.21790602803230286, 
    0.09429118037223816, 0.034392546862363815, -0.04617372155189514, 
  
    -0.17248006165027618, -0.0027104655746370554, -0.07457810640335083, 
    -0.05489161238074303, -0.26632779836654663, -0.3394796848297119, 
    0.2071443796157837, 0.04760541394352913, -0.37770509719848633, 
  
    -0.2271917462348938, 0.1540602594614029, 0.19673556089401245, 
    0.0596330389380455, 0.062094129621982574, 0.18962766230106354, 
    0.022048592567443848, 0.040475741028785706, 0.006012501195073128, 
  
    -0.0342981219291687, 0.21562960743904114, -0.2697788178920746, 
    0.3320537209510803, 0.014570890925824642, 0.0161714106798172, 
    0.06547251343727112, 0.1824028491973877, 0.07040110975503922, 
  
    -0.6988011598587036, -0.2514534294605255, -0.08440303802490234, 
    0.198574960231781, -0.5716736316680908, -0.16053715348243713, 
    -0.04326543211936951, 0.1375308483839035, -0.3000175654888153, 
  
    0.10041650384664536, -0.11124759167432785, 0.29848748445510864, 
    0.06407538056373596, 0.07987312227487564, -0.17675364017486572, 
    0.12359831482172012, -0.21351954340934753, -0.09676197916269302, 
  
    -0.012952546589076519, -0.10751267522573471, -0.323675274848938, 
    -0.05607521906495094, 0.07855299860239029, 0.09226752817630768, 
    0.08644992113113403, 0.047647472470998764, 0.04573507234454155, 
  
  };
  static filter_t filter10 = {16, 3, weights10, 0.16166025400161743};
  filtros[10]=filter10;
    
  static const float weights11[]={
    0.09339690953493118, -0.36414167284965515, -0.8303848505020142, 
    -0.4155241549015045, -0.9639698266983032, -0.5522980093955994, 
    -1.0416256189346313, -0.7994312047958374, -0.4605924189090729, 
  
    0.11213181167840958, 0.020735792815685272, 0.14000330865383148, 
    0.28488290309906006, 0.1493155062198639, -0.3648044466972351, 
    -0.018797874450683594, -0.10655908286571503, -0.3394981622695923, 
  
    0.43377062678337097, -0.13698731362819672, -0.5920882821083069, 
    0.007117712404578924, -0.11040394008159637, -0.4290514886379242, 
    -0.48817530274391174, 0.017383933067321777, -0.22245213389396667, 
  
    0.09704603254795074, 0.3665546178817749, -0.41334766149520874, 
    -0.37638571858406067, -0.7978160977363586, -0.8495413661003113, 
    -0.46065664291381836, -0.32019346952438354, -0.2939978837966919, 
  
    0.2913569211959839, 0.13700085878372192, -0.47763171792030334, 
    0.061942532658576965, -0.08532187342643738, -0.5233045816421509, 
    -0.6466252207756042, -0.8874585628509521, -0.3956001400947571, 
  
    0.2510512173175812, 0.1440548449754715, -0.04412718862295151, 
    0.15821555256843567, -0.14806294441223145, -0.5547618269920349, 
    -0.19491466879844666, -0.4397711157798767, -0.5265401601791382, 
  
    0.3448250889778137, -0.02079267054796219, -0.4807469844818115, 
    0.12270040065050125, -0.2731536328792572, -0.6632102131843567, 
    -0.4292307496070862, -0.6936579942703247, -0.395266592502594, 
  
    0.07756654918193817, 0.1929730623960495, 0.1114729791879654, 
    0.5373178124427795, 0.3211681842803955, 0.06668893992900848, 
    0.07696789503097534, 0.05879488214850426, 0.08651948720216751, 
  
    0.25363147258758545, 0.3946720063686371, 0.09328394383192062, 
    0.012179384008049965, -0.3462381064891815, -0.49506571888923645, 
    -0.5194015502929688, -0.7717249393463135, -0.9568378925323486, 
  
    0.43324026465415955, 0.12598048150539398, -0.7333388328552246, 
    0.12935301661491394, -0.30230554938316345, -0.40728577971458435, 
    -0.7491260170936584, -0.7368647456169128, -0.3160113990306854, 
  
    0.34137049317359924, 0.3291533291339874, 0.2072305977344513, 
    0.3787320554256439, -0.044967953115701675, -0.48905494809150696, 
    0.1398971527814865, 0.16280661523342133, -0.036708611994981766, 
  
    0.08122863620519638, -0.08366242051124573, 0.06666229665279388, 
    0.0015930722001940012, -0.13140445947647095, 0.10937836021184921, 
    0.17012548446655273, 0.22663018107414246, 0.2306019365787506, 
  
    0.26234421133995056, 0.21942998468875885, 0.18365125358104706, 
    0.20944954454898834, 0.016547255218029022, -0.620354175567627, 
    -0.21140055358409882, -0.4319060146808624, -0.5601988434791565, 
  
    -0.7926309704780579, -0.39464861154556274, -0.4194536507129669, 
    -0.3086492121219635, -0.8425214886665344, -0.9763882756233215, 
    -0.06519699841737747, -0.19471481442451477, -0.28714409470558167, 
  
    0.029743582010269165, 0.31440046429634094, 0.12814286351203918, 
    0.6889446973800659, 0.42446786165237427, 0.07063911110162735, 
    -0.02111494168639183, -0.2556493580341339, -0.31964579224586487, 
  
    0.2912701666355133, 0.1504266858100891, 0.13688062131404877, 
    0.2535497546195984, -0.15797802805900574, -0.6161990761756897, 
    -0.12974762916564941, -0.27639734745025635, -0.5342624187469482, 
  
  };
  static filter_t filter11 = {16, 3, weights11, 0.22981001436710358};
  filtros[11]=filter11;
    
  static const float weights12[]={
    0.054537225514650345, -0.19298772513866425, 0.02070804499089718, 
    -0.22996604442596436, -0.3936333656311035, -0.5868240594863892, 
    0.11800353974103928, -0.10006240010261536, 0.015351133421063423, 
  
    0.07993408292531967, -0.06458808481693268, -0.09595687687397003, 
    0.1684388816356659, 0.0032423955854028463, -0.11091222614049911, 
    0.18105946481227875, -0.02627030573785305, -0.09275359660387039, 
  
    -0.24121524393558502, -0.18402829766273499, -0.29472267627716064, 
    0.1739879995584488, -0.23937948048114777, -0.360793799161911, 
    -0.3034551739692688, -0.22711913287639618, -0.27397027611732483, 
  
    0.04951970651745796, 0.07055365294218063, -0.08081459254026413, 
    -0.07683702558279037, 0.12309808284044266, -0.16870199143886566, 
    -0.09021519869565964, -0.2785860598087311, -0.13770997524261475, 
  
    -0.07958485186100006, 0.04463003948330879, -0.0009336693328805268, 
    0.03508339077234268, 0.22833067178726196, 0.04696714133024216, 
    0.1979527473449707, 0.07112650573253632, -0.06446652859449387, 
  
    -0.07574833929538727, -0.01668226346373558, -0.052608393132686615, 
    0.23239558935165405, -0.008436204865574837, 0.1727999746799469, 
    0.09404607862234116, 0.26076382398605347, 0.06185126304626465, 
  
    0.14580300450325012, 0.12318627536296844, 0.08840113878250122, 
    0.07139212638139725, 0.2126753330230713, -0.06452081352472305, 
    0.06001270189881325, -0.002325089182704687, -0.1470678746700287, 
  
    0.20649053156375885, -0.17337368428707123, 0.08503679931163788, 
    -0.48715096712112427, 0.07737291604280472, -0.3420143127441406, 
    -0.2741735577583313, -0.3439701497554779, 0.19519221782684326, 
  
    0.1279604434967041, 0.3737484812736511, -0.24984878301620483, 
    0.08534260839223862, 0.12511713802814484, 0.33944106101989746, 
    0.0815255418419838, 0.41721269488334656, 0.13581068813800812, 
  
    0.056551579385995865, 0.02134302258491516, -0.0038755021523684263, 
    -0.015514646656811237, -0.03808341175317764, 0.140154168009758, 
    -0.0001469172420911491, 0.020700354129076004, -0.17188438773155212, 
  
    0.06018130108714104, 0.19970843195915222, -0.3310074806213379, 
    -0.05604729801416397, -0.13533058762550354, -0.05459335446357727, 
    -0.0854262188076973, -0.05526476725935936, -0.10105857253074646, 
  
    0.004582252819091082, -0.11376462131738663, -0.2001803070306778, 
    0.17978285253047943, -0.17465724050998688, -0.1845579296350479, 
    0.6108434200286865, 0.012310698628425598, 0.1756851077079773, 
  
    -0.24347703158855438, 0.11778844892978668, -0.14380866289138794, 
    0.017183898016810417, 0.04929357394576073, -0.03654337301850319, 
    0.0383128859102726, 0.12805384397506714, 0.10947204381227493, 
  
    0.10677985846996307, -0.011533571407198906, -0.4167761206626892, 
    -0.04104016721248627, -0.19610238075256348, -0.6472187638282776, 
    0.07462422549724579, 0.10081443190574646, 0.17867320775985718, 
  
    0.07738091796636581, -0.17135584354400635, -0.088446244597435, 
    -0.12009245157241821, -0.13584589958190918, -0.21307270228862762, 
    -0.0943429097533226, -0.1644592136144638, 0.24162276089191437, 
  
    -0.0198963712900877, -0.06239955127239227, -0.23317387700080872, 
    0.20393703877925873, -0.10096202790737152, 0.09935753792524338, 
    0.2118736058473587, 0.04281844198703766, 0.02057880535721779, 
  
  };
  static filter_t filter12 = {16, 3, weights12, 0.18107210099697113};
  filtros[12]=filter12;
    
  static const float weights13[]={
    -0.4607791602611542, 0.07383318245410919, 0.06378290802240372, 
    -0.14179886877536774, -0.14226034283638, 0.10130525380373001, 
    0.2835903465747833, -0.39803117513656616, 0.033367790281772614, 
  
    -0.027796803042292595, -0.028195030987262726, 0.18378287553787231, 
    -0.24596694111824036, -0.013592719100415707, 0.06826378405094147, 
    0.15168601274490356, -0.09902875125408173, -0.023933831602334976, 
  
    0.07091575860977173, 0.45900002121925354, 0.38071560859680176, 
    -0.698911726474762, -0.2866920530796051, 0.2521381080150604, 
    -0.2583005428314209, -0.25975528359413147, -0.5283797979354858, 
  
    0.10487920790910721, 0.017293041571974754, -0.2201094776391983, 
    0.14516586065292358, 0.009860975667834282, 0.4502680003643036, 
    -0.25209909677505493, -0.20805223286151886, 0.22625969350337982, 
  
    -0.031107228249311447, 0.0958511158823967, 0.2233201265335083, 
    -0.30675017833709717, -0.11248943954706192, 0.03249146416783333, 
    0.12833815813064575, -0.05000967159867287, -0.09267576038837433, 
  
    -0.00804205797612667, -0.013520079664885998, 0.09882036596536636, 
    -0.1651686429977417, -0.13051961362361908, 0.12589694559574127, 
    0.19308851659297943, -0.13182128965854645, 0.12706685066223145, 
  
    0.17527985572814941, 0.021135637536644936, 0.039503343403339386, 
    -0.13289770483970642, -0.11762075126171112, 0.23121942579746246, 
    0.026220545172691345, -0.06023168936371803, 0.15360181033611298, 
  
    -0.0510854534804821, -0.3039650022983551, 0.4325300455093384, 
    -0.2342538833618164, -0.12610994279384613, 0.15480290353298187, 
    -0.12477686256170273, -0.1568089872598648, 0.07230272889137268, 
  
    0.19671429693698883, -0.09642048180103302, -0.03025127947330475, 
    -0.6915294528007507, -0.3134334087371826, -0.19615118205547333, 
    0.04757828265428543, -0.04423955827951431, 0.12579159438610077, 
  
    -0.06483101844787598, 0.054967381060123444, 0.1500028520822525, 
    -0.3243803381919861, -0.19122181832790375, 0.08598504215478897, 
    0.18218185007572174, -0.18159088492393494, 0.18621550500392914, 
  
    0.1297854334115982, -0.13516080379486084, -0.233699232339859, 
    0.056295257061719894, 0.17537730932235718, 0.34697577357292175, 
    -0.5351887941360474, -0.28002095222473145, -0.07429742813110352, 
  
    0.042028024792671204, -0.043477050960063934, -0.16049827635288239, 
    0.17056263983249664, 0.211457297205925, 0.2600780129432678, 
    0.288295716047287, 0.12757988274097443, 0.27182722091674805, 
  
    -0.16035808622837067, -0.09113509953022003, -0.13408957421779633, 
    -0.3423968553543091, -0.1404755711555481, 0.016209840774536133, 
    0.401341050863266, -0.05254437029361725, 0.23740822076797485, 
  
    0.041917312890291214, -0.18557265400886536, -0.40787193179130554, 
    0.2992483377456665, 0.31031930446624756, 0.3507208824157715, 
    -0.24382419884204865, -0.18893317878246307, 0.08305711299180984, 
  
    -0.01426863856613636, -0.3730050325393677, 0.1409529149532318, 
    -0.8734467625617981, -0.03635358065366745, 0.021237634122371674, 
    -0.3559379279613495, -0.16457873582839966, 0.047547269612550735, 
  
    -0.022104820236563683, 0.021555744111537933, 0.07003213465213776, 
    -0.24830305576324463, 0.11774265021085739, 0.20976543426513672, 
    -0.05016256496310234, -0.10186606645584106, -0.007491837255656719, 
  
  };
  static filter_t filter13 = {16, 3, weights13, 0.13259702920913696};
  filtros[13]=filter13;
    
  static const float weights14[]={
    0.09192346036434174, -0.03304396569728851, -0.12998832762241364, 
    0.21192221343517303, 0.08911623805761337, 0.22133490443229675, 
    -0.31734395027160645, 0.034214504063129425, -0.14850963652133942, 
  
    0.19498568773269653, 0.05404476821422577, -0.07202416658401489, 
    0.21480277180671692, 0.14558841288089752, 0.09848734736442566, 
    -0.05482134595513344, 0.20562589168548584, 0.17631566524505615, 
  
    0.32994818687438965, 0.24087131023406982, -0.35785990953445435, 
    0.15658974647521973, 0.23855441808700562, 0.26714861392974854, 
    -0.0030992731917649508, -0.14862699806690216, 0.2462858110666275, 
  
    -0.5039825439453125, -0.35843315720558167, -0.544562816619873, 
    -0.1336541771888733, 0.19314484298229218, -0.3344430923461914, 
    0.21446500718593597, 0.025387831032276154, 0.15104353427886963, 
  
    0.09165418148040771, -0.0204289760440588, -0.0910012274980545, 
    0.048776522278785706, 0.17490512132644653, 0.09817560017108917, 
    -0.3116776645183563, -0.005531264003366232, 0.1108665019273758, 
  
    0.13082844018936157, -0.14227399230003357, -0.03452974557876587, 
    0.024975929409265518, 0.18274959921836853, 0.14859752357006073, 
    -0.2638548016548157, 0.04631317779421806, -0.11991208791732788, 
  
    0.011940205469727516, -0.05074119567871094, -0.2844904959201813, 
    0.0513494610786438, 0.20897725224494934, 0.023733386769890785, 
    -0.10321848839521408, -0.07185029238462448, 0.3583422303199768, 
  
    -0.16544461250305176, -0.1187453344464302, -0.4731689989566803, 
    0.030297063291072845, -0.05661340057849884, -0.09375770390033722, 
    -0.4343426823616028, -0.2728961408138275, 0.2657307982444763, 
  
    -0.05585639551281929, -0.2739226222038269, 0.22235332429409027, 
    -0.41864848136901855, 0.036956172436475754, 0.1851683259010315, 
    -0.47688040137290955, -0.0804864838719368, 0.024453002959489822, 
  
    0.09317664057016373, -0.0016729625640437007, -0.3188418447971344, 
    -0.0005025053978897631, 0.030964788049459457, -0.04236946254968643, 
    -0.285138338804245, -0.19221962988376617, 0.19773165881633759, 
  
    -0.3648337125778198, -0.3526010811328888, -0.5206558108329773, 
    0.16985739767551422, 0.15725325047969818, -0.5717434883117676, 
    0.24279697239398956, 0.14770297706127167, 0.024593839421868324, 
  
    0.18711286783218384, 0.08863801509141922, 0.1417771428823471, 
    -0.11978726089000702, 0.08252255618572235, 0.3855176568031311, 
    0.28847432136535645, -0.015751812607049942, 0.02951265126466751, 
  
    -0.058826643973588943, 0.032423414289951324, -0.3625483214855194, 
    -0.05715363100171089, 0.00011728183017112315, -0.14446376264095306, 
    -0.18325920403003693, -0.004354881588369608, 0.2086416333913803, 
  
    -0.6561679244041443, -0.622373640537262, -0.5473299026489258, 
    0.4487576186656952, 0.4450409412384033, -0.4716910421848297, 
    0.7005119323730469, 0.524709939956665, 0.6581083536148071, 
  
    -0.11348911374807358, -0.008971046656370163, -0.6036458015441895, 
    0.1888670027256012, -0.1986590027809143, 0.17924608290195465, 
    -0.6857584118843079, -0.3538052439689636, -0.16553166508674622, 
  
    0.11099279671907425, 0.03843916952610016, -0.3640371263027191, 
    0.15867675840854645, 0.10523657500743866, 0.05374051630496979, 
    -0.1603652685880661, 0.12050437182188034, 0.23917914927005768, 
  
  };
  static filter_t filter14 = {16, 3, weights14, -0.009202616289258003};
  filtros[14]=filter14;
    
  static const float weights15[]={
    -0.43050748109817505, -0.046008408069610596, -0.0975947305560112, 
    0.09095761179924011, 0.02681383490562439, 0.14083437621593475, 
    0.22000235319137573, 0.043314721435308456, 0.12635742127895355, 
  
    -0.30733102560043335, -0.33711424469947815, 0.11973161995410919, 
    -0.3149944841861725, -0.3681419789791107, -0.15175090730190277, 
    -0.14697697758674622, -0.1819276064634323, 0.13796965777873993, 
  
    0.2119181901216507, -0.10361447930335999, -0.19489124417304993, 
    0.2026144117116928, -0.13304835557937622, 0.06291590631008148, 
    0.392100989818573, 0.27875202894210815, 0.5671607255935669, 
  
    0.1591789275407791, 0.2625550627708435, 0.15103812515735626, 
    0.11446215957403183, -0.12418604642152786, 0.1365155130624771, 
    -0.17009519040584564, -0.027417972683906555, 0.2693660855293274, 
  
    0.06836973875761032, -0.09938538074493408, 0.18766342103481293, 
    -0.24251395463943481, -0.2952612340450287, 0.03916099667549133, 
    -0.20648734271526337, 0.03634671866893768, 0.052532412111759186, 
  
    -0.4318801462650299, -0.2602181136608124, 0.14047826826572418, 
    -0.2624395787715912, -0.38046881556510925, -0.07046718895435333, 
    -0.13310538232326508, -0.13915503025054932, 0.12118715792894363, 
  
    -0.16235682368278503, 0.16556119918823242, 0.24156934022903442, 
    -0.24352864921092987, -0.27752575278282166, 0.060786861926317215, 
    -0.24128764867782593, 0.0049921986646950245, 0.1414303034543991, 
  
    0.03558902442455292, -0.061013661324977875, -0.24505206942558289, 
    0.07987064123153687, 0.14355094730854034, 0.006667452398687601, 
    0.09542451053857803, 0.19244088232517242, 0.18540586531162262, 
  
    -0.11944711208343506, -0.2444753795862198, 0.24808816611766815, 
    -0.44337373971939087, -0.6248875260353088, -0.16590596735477448, 
    -0.5209859013557434, -0.1887880265712738, -0.1065903902053833, 
  
    0.25347793102264404, 0.21245482563972473, -0.10378193855285645, 
    -0.1536976546049118, -0.2606538236141205, -0.14295415580272675, 
    -0.043565306812524796, -0.1308991014957428, 0.2358800321817398, 
  
    -0.07048610597848892, 0.042024027556180954, 0.27864933013916016, 
    0.4172612726688385, 0.16300253570079803, 0.4806133806705475, 
    0.5467016696929932, 0.5614067316055298, 0.3159885108470917, 
  
    0.2827484607696533, 0.1924692690372467, 0.14084544777870178, 
    0.40082013607025146, 0.3882639706134796, 0.5287134051322937, 
    0.3562983572483063, 0.12179145961999893, 0.03619644045829773, 
  
    0.023889407515525818, -0.3374882638454437, 0.3715667724609375, 
    -0.012329712510108948, -0.18276144564151764, 0.20279841125011444, 
    -0.06664469838142395, -0.1368868052959442, -0.022385913878679276, 
  
    -0.1856161653995514, 0.04515744000673294, 0.1623903512954712, 
    -0.13433435559272766, -0.06814229488372803, 0.28421109914779663, 
    0.09875153005123138, 0.3153768479824066, 0.3468620181083679, 
  
    0.08483925461769104, -0.4367469251155853, -0.04985542222857475, 
    -0.2563595473766327, -0.24983550608158112, -0.19727587699890137, 
    -0.06667913496494293, 0.05948694422841072, 0.1840834766626358, 
  
    -0.13778074085712433, -0.08791426569223404, 0.05596039444208145, 
    -0.24335052073001862, -0.22551675140857697, -0.023732304573059082, 
    -0.30710506439208984, -0.13378947973251343, 0.15967382490634918, 
  
  };
  static filter_t filter15 = {16, 3, weights15, 0.3672000765800476};
  filtros[15]=filter15;
    
  static const float weights16[]={
    0.20875895023345947, -0.05947088450193405, 0.0282786525785923, 
    0.7851429581642151, 0.34700945019721985, -0.21998849511146545, 
    0.642324686050415, 0.8236104249954224, 0.47141772508621216, 
  
    -0.08209504187107086, 0.05717737600207329, 0.009862265549600124, 
    0.01658313162624836, -0.15455037355422974, -0.16304849088191986, 
    -0.42664283514022827, -0.2562376856803894, -0.31318122148513794, 
  
    0.1880997270345688, -0.09749212116003036, 0.03218616917729378, 
    0.3888082504272461, -0.017248304560780525, -0.013086272403597832, 
    0.9126905202865601, 0.8707733750343323, 0.37911349534988403, 
  
    -0.09227338433265686, 0.29315412044525146, 0.15507441759109497, 
    -0.2542056739330292, 0.2261970192193985, 0.4096490740776062, 
    -0.21313072741031647, -0.29315534234046936, -0.0035689882934093475, 
  
    -0.08368631452322006, -0.05566427856683731, 0.05099473521113396, 
    -0.2728205919265747, -0.19622543454170227, 0.22040718793869019, 
    -0.03947173431515694, 0.0017065014690160751, -0.17936378717422485, 
  
    0.016718432307243347, -0.012842136435210705, 0.03482024744153023, 
    -0.11241760849952698, -0.046262796968221664, 0.03917744755744934, 
    -0.39544951915740967, -0.23473680019378662, -0.004352085758000612, 
  
    -0.15884874761104584, 0.0874071791768074, 0.2688879668712616, 
    -0.29186221957206726, -0.15437370538711548, 0.2041109800338745, 
    -0.0032090558670461178, -0.18264655768871307, -0.2051527500152588, 
  
    0.40151727199554443, -0.006442242302000523, 0.2080659568309784, 
    0.23127374053001404, -0.18052148818969727, 0.13202066719532013, 
    0.058135922998189926, -0.07130692899227142, -0.1719609647989273, 
  
    0.33639276027679443, 0.07878696918487549, 0.16516833007335663, 
    0.1632698029279709, 0.05819745734333992, -0.10627895593643188, 
    -0.10657929629087448, -0.1210184395313263, -0.4456246793270111, 
  
    0.0895201712846756, 0.018000254407525063, 0.13570696115493774, 
    -0.3793012201786041, -0.3041393756866455, 0.23659861087799072, 
    0.06981683522462845, 0.10742407292127609, -0.11181654781103134, 
  
    0.03223252668976784, 0.02924259752035141, -0.0026435358449816704, 
    0.05896572023630142, 0.12231595814228058, 0.40424755215644836, 
    -0.0799076184630394, 0.1240549087524414, 0.2457948476076126, 
  
    0.057277556508779526, 0.07688935101032257, 0.046699441969394684, 
    0.11452553421258926, 0.15831589698791504, 0.27881941199302673, 
    0.14870086312294006, 0.1069243848323822, 0.2231965959072113, 
  
    0.17508351802825928, 0.13967616856098175, 0.11797402054071426, 
    0.04164715111255646, -0.13895222544670105, 0.1311255842447281, 
    -0.37132617831230164, -0.20195531845092773, 0.09287688136100769, 
  
    -0.00041612592758610845, 0.13909347355365753, 0.37136727571487427, 
    0.0410192497074604, 0.12718240916728973, 0.6265625357627869, 
    -0.07066188007593155, 0.11836361885070801, 0.5950451493263245, 
  
    0.02340696007013321, -0.006967711262404919, 0.2567252814769745, 
    0.050736382603645325, -0.3615450859069824, -0.3498210608959198, 
    0.1302681714296341, -0.347002238035202, -0.24162591993808746, 
  
    -0.09544529020786285, -0.04357469454407692, 0.08240359276533127, 
    -0.1269635260105133, 0.029401376843452454, 0.05414668098092079, 
    -0.4147472381591797, -0.2521267533302307, -0.21150334179401398, 
  
  };
  static filter_t filter16 = {16, 3, weights16, 0.11900771409273148};
  filtros[16]=filter16;
    
  static const float weights17[]={
    -0.4269706606864929, -0.2286556512117386, 0.19276031851768494, 
    -0.5167288184165955, -0.3921927213668823, -0.26693254709243774, 
    -0.43105337023735046, -0.2634604871273041, -0.14527596533298492, 
  
    -0.24330805242061615, 0.013526909053325653, 0.053560856729745865, 
    -0.1532963365316391, 0.1572178304195404, 0.010287515819072723, 
    0.0648544505238533, 0.14288218319416046, 0.05079664662480354, 
  
    -0.30989015102386475, -0.37406930327415466, 0.04366036131978035, 
    -0.5449528098106384, -0.20877453684806824, 0.15616637468338013, 
    -0.6078079342842102, -0.304760217666626, -0.6047155857086182, 
  
    0.12014506012201309, -0.010078143328428268, 0.1515718400478363, 
    0.07630427926778793, 0.06532126665115356, 0.24915845692157745, 
    0.07522477954626083, 0.11979648470878601, 0.07875756919384003, 
  
    0.008991642855107784, -0.03688542917370796, 0.1251571774482727, 
    0.14256633818149567, -0.041670121252536774, -0.03464711084961891, 
    0.02080615796148777, -0.03701786324381828, 0.052421581000089645, 
  
    -0.13234494626522064, -0.05622749403119087, 0.04509648680686951, 
    -0.1494700163602829, -0.021588021889328957, 0.07129675894975662, 
    0.17436735332012177, 0.13855737447738647, -0.07106886804103851, 
  
    -0.16028545796871185, -0.02784198522567749, 0.06835432350635529, 
    0.13517288863658905, -0.0011059545213356614, 0.10997996479272842, 
    0.03551933914422989, 0.15984389185905457, -0.19964724779129028, 
  
    -0.1414223313331604, 0.25596264004707336, 0.35244280099868774, 
    0.14771060645580292, 0.16090257465839386, -0.12208914756774902, 
    0.15593063831329346, 0.4367425739765167, 0.30527037382125854, 
  
    -0.08379661291837692, 0.03441827371716499, -0.08886097371578217, 
    -0.13098151981830597, 0.0671386867761612, 0.2318049967288971, 
    -0.3056962788105011, 0.2760045528411865, 0.07821307331323624, 
  
    -0.01855933852493763, 0.08616538345813751, 0.22263824939727783, 
    0.05823216587305069, 0.06570389866828918, 0.08840110898017883, 
    0.04838446155190468, 0.16757360100746155, -0.13810203969478607, 
  
    -0.2395038604736328, -0.01423965860158205, 0.15822258591651917, 
    -0.28942736983299255, -0.05568212270736694, 0.06491180509328842, 
    0.10920675098896027, 0.04256691038608551, -0.3038484454154968, 
  
    0.12532168626785278, -0.09986191987991333, 0.10277052223682404, 
    -0.12021151930093765, -0.26740899682044983, 0.10381551831960678, 
    -0.2799696624279022, -0.08546838164329529, 0.032529983669519424, 
  
    -0.02929493598639965, -0.09783337265253067, 0.0434780977666378, 
    0.09283652901649475, 0.3256038427352905, 0.09496094286441803, 
    0.04881657660007477, 0.14460013806819916, -0.05364334583282471, 
  
    0.11276032775640488, 0.010964968241751194, -0.23304881155490875, 
    -0.02852708473801613, -0.24931380152702332, -0.22572779655456543, 
    0.18620547652244568, -0.28584709763526917, -0.14749658107757568, 
  
    -0.2415449619293213, 0.3321411907672882, 0.14259152114391327, 
    -0.029650237411260605, 0.11005089432001114, 0.12732148170471191, 
    -0.04825808107852936, 0.5730913281440735, 0.3454955220222473, 
  
    -0.11180587112903595, -0.014672388322651386, 0.12420330196619034, 
    -0.07759957760572433, -0.10591801255941391, -0.0026808881666511297, 
    0.024012548848986626, 0.1617971807718277, -0.07429396361112595, 
  
  };
  static filter_t filter17 = {16, 3, weights17, 0.1184607669711113};
  filtros[17]=filter17;
    
  static const float weights18[]={
    0.029067249968647957, 0.11061251908540726, -0.11334683746099472, 
    -0.05351601168513298, 0.005267399828881025, 0.10922474414110184, 
    0.015994204208254814, 0.037666015326976776, -0.0040049925446510315, 
  
    0.07189351320266724, 0.053269486874341965, 0.04557406157255173, 
    0.05225040018558502, 0.06803611665964127, -0.038633644580841064, 
    0.09235917776823044, 0.08854023367166519, 0.015545695088803768, 
  
    0.034053970128297806, -0.10527369379997253, -0.07513537257909775, 
    -0.11723840981721878, 0.01863250881433487, 0.07804321497678757, 
    -0.11728385090827942, -0.0875183641910553, -0.01927497796714306, 
  
    0.046962641179561615, -0.11800636351108551, -0.09822447597980499, 
    -0.09872877597808838, -0.09560718387365341, 0.10587309300899506, 
    0.0732998251914978, -0.03221021592617035, 0.06506700813770294, 
  
    0.059421196579933167, 0.017706086859107018, -0.06681391596794128, 
    -0.02617536671459675, 0.07030647248029709, 0.10185815393924713, 
    -0.0033789940644055605, -0.09874074161052704, 0.07097437977790833, 
  
    -0.03366292640566826, 0.017183896154165268, -0.08926819264888763, 
    -0.006396483164280653, 0.04911847040057182, -0.1153799369931221, 
    -0.11474260687828064, -0.09452714025974274, -0.05647473782300949, 
  
    0.024917224422097206, -0.03667197376489639, -0.03254377469420433, 
    0.09008567035198212, 0.1034451574087143, -0.10762494057416916, 
    -0.00739166047424078, 0.07796590030193329, -0.023789336904883385, 
  
    -0.07494878768920898, 0.019045569002628326, -0.07996449619531631, 
    -0.02562735229730606, -0.053633783012628555, -0.06810235977172852, 
    -0.03576647862792015, -0.07084426283836365, -0.016389697790145874, 
  
    -0.03372635692358017, 0.061964742839336395, -0.02746007591485977, 
    -0.12239734083414078, 0.06278595328330994, 0.07286886125802994, 
    -0.10247205197811127, -0.08667445927858353, 0.04178283363580704, 
  
    -0.03646445274353027, 0.09167063981294632, 0.01613951474428177, 
    -0.08817289769649506, -0.07907712459564209, 0.0035580317489802837, 
    0.03622405230998993, -0.06209171563386917, -0.03462424874305725, 
  
    0.07611864060163498, 0.05558701232075691, -0.008676732890307903, 
    -0.07219451665878296, -0.0844036266207695, 0.11068285256624222, 
    0.08433669060468674, 0.016905296593904495, 0.08238203078508377, 
  
    -0.07269547879695892, 0.006305336952209473, 0.09252137690782547, 
    -0.1161375492811203, -0.03751853108406067, 0.06081565096974373, 
    -0.08820177614688873, -0.004421569406986237, 0.09107315540313721, 
  
    0.07713823765516281, 0.03882179781794548, 0.0730561688542366, 
    0.09115525335073471, -0.10577499121427536, -0.061148419976234436, 
    0.028422726318240166, -0.07297378778457642, 0.0005831420421600342, 
  
    -0.029268423095345497, 0.02608617953956127, -0.10358171164989471, 
    -0.02140330709517002, -0.07860486954450607, -0.084866963326931, 
    -0.05354985594749451, -0.06906719505786896, -0.02595057711005211, 
  
    0.024044446647167206, 0.0668601542711258, 0.07659710198640823, 
    -0.06973450630903244, 0.10621810704469681, 0.05798909813165665, 
    -0.059911128133535385, -0.07315684109926224, -0.01853572577238083, 
  
    -0.11001088470220566, -0.11271306872367859, -0.0923154205083847, 
    -0.12080252170562744, -0.07390989363193512, -0.08681725710630417, 
    -0.047519028186798096, 0.014818113297224045, -0.058527201414108276, 
  
  };
  static filter_t filter18 = {16, 3, weights18, -0.00930043961852789};
  filtros[18]=filter18;
    
  static const float weights19[]={
    -0.043952275067567825, -0.11683018505573273, -0.16433168947696686, 
    0.041434090584516525, 0.13145892322063446, -0.04587173834443092, 
    0.39946481585502625, 0.2124381810426712, -0.0950961709022522, 
  
    0.06285242736339569, 0.04886210709810257, -0.036363035440444946, 
    0.04996870458126068, -0.01855301298201084, -0.09287489950656891, 
    -0.043934762477874756, 0.040524646639823914, 0.06553896516561508, 
  
    0.13437391817569733, 0.11755331605672836, -0.10974932461977005, 
    0.508957028388977, 0.1554282307624817, 0.17952071130275726, 
    0.249439999461174, -0.10666897892951965, -0.2789355218410492, 
  
    -0.2619355618953705, -0.008356017991900444, -0.2192394882440567, 
    0.03863590583205223, -0.0662766844034195, -0.0718357190489769, 
    -0.10580253601074219, -0.026192398741841316, 0.03651614114642143, 
  
    0.02938147261738777, 0.01639815978705883, -0.057833004742860794, 
    -0.020695405080914497, -0.16502699255943298, 0.11885608732700348, 
    0.06625735759735107, -0.06643605977296829, -0.08847585320472717, 
  
    -0.144117072224617, -0.04048227146267891, -0.10508700460195541, 
    0.06939023733139038, 0.032465483993291855, -0.04359401389956474, 
    0.012587731704115868, 0.10772979259490967, 0.06140174716711044, 
  
    -0.05122791603207588, -0.04274735972285271, -0.04217740148305893, 
    -0.035196803510189056, 0.1578788161277771, 0.0777842253446579, 
    -0.08825352787971497, 0.12552519142627716, 0.10632593929767609, 
  
    -0.04754681885242462, -0.07890554517507553, 0.056306980550289154, 
    0.1914481669664383, 0.08270025998353958, -0.07328826934099197, 
    0.04316839948296547, -0.0972234308719635, 0.14384257793426514, 
  
    -0.2538655996322632, 0.2632938325405121, 0.18206842243671417, 
    0.016172273084521294, -0.034465037286281586, 0.1817421168088913, 
    0.3028195798397064, -0.11638903617858887, 0.08792990446090698, 
  
    0.05202445015311241, -0.007549074478447437, -0.2609838843345642, 
    -0.020320896059274673, 0.14493916928768158, 0.024610962718725204, 
    0.07845526188611984, 0.074142225086689, 0.038818418979644775, 
  
    -0.0034654601477086544, 0.0677986592054367, -0.14435552060604095, 
    0.3824228346347809, 0.00977865606546402, -0.06980372220277786, 
    0.11251336336135864, -0.14932700991630554, -0.06661748141050339, 
  
    -0.2760009765625, 0.08644413203001022, -0.1444428265094757, 
    -0.0665917620062828, -0.08451633900403976, 0.20483596622943878, 
    0.3585684895515442, -0.8055365681648254, 0.15875038504600525, 
  
    0.011188961565494537, 0.0009369162726216018, -0.07850755751132965, 
    -0.02116856910288334, -0.04369496926665306, -0.26309341192245483, 
    -0.1930859237909317, -0.039002273231744766, -0.2474890798330307, 
  
    -0.1926192194223404, -0.154823899269104, -0.506295919418335, 
    0.05560080707073212, 0.041314978152513504, -0.03299102559685707, 
    0.3385709524154663, -0.605732798576355, 0.1302606761455536, 
  
    0.045020706951618195, 0.03909452632069588, 0.14202091097831726, 
    0.10113207995891571, 0.028368789702653885, 0.008130017668008804, 
    0.03276378661394119, -0.11358197778463364, 0.017457742244005203, 
  
    -0.023455113172531128, -0.07022204995155334, -0.11570268124341965, 
    0.03945731371641159, 0.054834023118019104, -0.008380929939448833, 
    -0.033667657524347305, 0.11675763875246048, 0.10702762752771378, 
  
  };
  static filter_t filter19 = {16, 3, weights19, 0.09669741988182068};
  filtros[19]=filter19;
    
  static const float weights20[]={
    -0.5619643926620483, -0.29541561007499695, -0.10599570721387863, 
    -0.44773343205451965, -0.44782066345214844, 0.06637321412563324, 
    -0.1390579342842102, -0.2376946210861206, -0.1564953476190567, 
  
    0.15784931182861328, -0.07255543768405914, -0.07895094156265259, 
    0.18936966359615326, 0.16003920137882233, -0.0863875150680542, 
    -0.06313995271921158, 0.1765296310186386, 0.035573046654462814, 
  
    -0.3541889488697052, -0.557896077632904, -0.06187701225280762, 
    -0.5530324578285217, -0.3647592067718506, -0.04600764438509941, 
    -0.45160895586013794, -0.5980306267738342, -0.1641261875629425, 
  
    0.12838508188724518, -0.1056315004825592, 0.18384189903736115, 
    0.05986947938799858, 0.1583653837442398, -0.03965320438146591, 
    -0.07107485085725784, 0.23256468772888184, 0.3356492519378662, 
  
    0.08285343647003174, -0.011193545535206795, 0.16633689403533936, 
    0.06571998447179794, -0.1566975861787796, 0.03651042282581329, 
    0.004698487929999828, 0.09139983355998993, 0.1048266664147377, 
  
    -0.07850263267755508, -0.16375784575939178, -0.05151795595884323, 
    -0.038209352642297745, 0.032140228897333145, -0.009286546148359776, 
    0.17888140678405762, -0.09906060248613358, 0.05111606419086456, 
  
    0.052775789052248, -0.012602359056472778, 0.23949484527111053, 
    -0.06737051159143448, -0.11836891621351242, 0.038954708725214005, 
    0.008185041137039661, 0.007534034550189972, 0.12112856656312943, 
  
    -0.04319256171584129, 0.1382674127817154, 0.2611790895462036, 
    0.11320961266756058, -0.19063399732112885, 0.13583073019981384, 
    0.10940137505531311, 0.008670421317219734, 0.11470868438482285, 
  
    -0.13726358115673065, -0.07063369452953339, -0.10226034373044968, 
    -0.06418097019195557, -0.11161377280950546, -0.2822425365447998, 
    0.059503741562366486, -0.0583711601793766, 0.12539149820804596, 
  
    0.046287573873996735, -0.10511761903762817, 0.10074284672737122, 
    -0.011522328481078148, -0.13388772308826447, 0.09585601836442947, 
    0.03786386922001839, -0.009351024404168129, -0.007213400211185217, 
  
    -0.053281255066394806, -0.21744005382061005, 0.09446399658918381, 
    0.15786537528038025, -0.10185247659683228, 0.12842220067977905, 
    -0.05475613474845886, -0.33246883749961853, 0.0593399740755558, 
  
    -0.24050593376159668, -0.0801248699426651, 0.2550102472305298, 
    -0.4262327551841736, -0.07711239159107208, 0.07568231225013733, 
    0.15905560553073883, -0.1580452173948288, -0.14336013793945312, 
  
    0.2957703769207001, -0.06732998043298721, 0.004268839955329895, 
    0.24414734542369843, -0.20222312211990356, 0.05683106556534767, 
    0.27034348249435425, 0.021502481773495674, 0.09880796819925308, 
  
    0.21756352484226227, -0.25008639693260193, 0.01019961480051279, 
    -0.06364867091178894, 0.08009461313486099, -0.03337474912405014, 
    0.3070908784866333, -0.38605886697769165, -0.361483633518219, 
  
    0.029928112402558327, 0.20772302150726318, 0.03912648186087608, 
    0.08028658479452133, -0.07913008332252502, 0.2533192038536072, 
    0.25955072045326233, 0.3525526523590088, 0.009934057481586933, 
  
    0.0836319699883461, -0.1444251388311386, 0.09085622429847717, 
    0.09587950259447098, -0.06889324635267258, 0.0327860526740551, 
    0.05623268708586693, 0.1099773496389389, 0.022605763748288155, 
  
  };
  static filter_t filter20 = {16, 3, weights20, 0.09919966757297516};
  filtros[20]=filter20;
    
  static const float weights21[]={
    0.1628304272890091, -0.17372001707553864, -0.34748929738998413, 
    0.3445051312446594, 0.09573131799697876, -0.27326661348342896, 
    0.021168071776628494, 0.16404712200164795, 0.28994715213775635, 
  
    -0.07558844238519669, -0.07822883129119873, -0.33131545782089233, 
    0.36980029940605164, 0.1882694959640503, -0.1219417005777359, 
    0.20748451352119446, -0.004768192768096924, 0.08188705146312714, 
  
    -0.1257520318031311, -0.6258070468902588, -0.6441372036933899, 
    0.3834947943687439, -0.2745237350463867, -0.5795356631278992, 
    0.436666339635849, 0.17147547006607056, -0.0005835730116814375, 
  
    -0.08879294991493225, -0.3610853850841522, -0.33586105704307556, 
    -0.08815513551235199, -0.34183549880981445, -0.5460372567176819, 
    0.11129523813724518, -0.2910953760147095, -0.4082746207714081, 
  
    0.1262214481830597, -0.3196960687637329, -0.4158439338207245, 
    0.2757069170475006, 0.0076821343973279, -0.20994961261749268, 
    0.09786726534366608, -0.06116326525807381, -0.1909552961587906, 
  
    0.1326906532049179, -0.24032001197338104, -0.43861740827560425, 
    0.20142845809459686, 0.2099149376153946, -0.1236494854092598, 
    0.09282025694847107, 0.0562804713845253, 0.14321161806583405, 
  
    -0.046408288180828094, -0.5054817199707031, -0.49205881357192993, 
    0.13568896055221558, 0.013781922869384289, -0.4445742964744568, 
    0.10197541862726212, -0.033893514424562454, -0.1721062958240509, 
  
    -0.04712525010108948, -0.18075653910636902, -0.0930282473564148, 
    -0.12130042165517807, 0.03641752898693085, -0.29360708594322205, 
    -0.18131312727928162, -0.07164941728115082, -0.3927175998687744, 
  
    0.30777350068092346, -0.2152344137430191, -0.06838195770978928, 
    -0.05779284983873367, 0.03795955702662468, -0.2949959933757782, 
    -0.17223261296749115, -0.17129197716712952, 0.047520555555820465, 
  
    0.060728803277015686, -0.318193644285202, -0.61158287525177, 
    0.19034406542778015, 0.1528308093547821, -0.36685001850128174, 
    -0.06768009066581726, 0.15670278668403625, 0.16824452579021454, 
  
    -0.09939119964838028, 0.006749158259481192, 0.08427702635526657, 
    0.13068200647830963, -0.3536878526210785, -0.47390303015708923, 
    0.4220105707645416, 0.1778518706560135, -0.37656065821647644, 
  
    0.2293892651796341, 0.10454411804676056, -0.03950446471571922, 
    0.34338629245758057, 0.25989729166030884, 0.1835116147994995, 
    0.2456689178943634, -0.014552389271557331, 0.24555058777332306, 
  
    0.19234003126621246, -0.08637125790119171, -0.18099693953990936, 
    0.25473570823669434, -0.0641622394323349, -0.20001165568828583, 
    0.04383327439427376, 0.10249346494674683, 0.15857653319835663, 
  
    -0.11933361738920212, 0.07746371626853943, 0.19538237154483795, 
    -0.4160900413990021, -0.12967756390571594, 0.11738400161266327, 
    0.37952545285224915, 0.07282661646604538, -0.4763988256454468, 
  
    -0.2176615595817566, -0.17457695305347443, -0.03919078782200813, 
    -0.015476698987185955, -0.3531036376953125, -0.7255445718765259, 
    0.08243893831968307, 0.06947944313287735, -0.5311512351036072, 
  
    -0.12690585851669312, -0.31398090720176697, -0.5371289849281311, 
    0.2732144296169281, 0.06567003577947617, -0.33949753642082214, 
    0.2252473682165146, 0.01510587614029646, -0.09197888523340225, 
  
  };
  static filter_t filter21 = {16, 3, weights21, 0.04265207052230835};
  filtros[21]=filter21;
    
  static const float weights22[]={
    -0.34553778171539307, -0.30251964926719666, 0.17017246782779694, 
    -0.09718381613492966, -0.526034414768219, -0.3731769919395447, 
    -0.3718593418598175, -0.4388419985771179, -0.4018617272377014, 
  
    -0.2708292305469513, 0.27657726407051086, 0.2201230525970459, 
    -0.03100622072815895, -0.05509667098522186, 0.17951329052448273, 
    0.1933857649564743, 0.2216941863298416, -0.13292036950588226, 
  
    -0.08014348149299622, -1.902431540656835e-05, 0.002406802959740162, 
    0.0439186654984951, -0.2577054798603058, 0.16886579990386963, 
    -0.4743879437446594, -0.5256215333938599, -0.09145427495241165, 
  
    0.4151739478111267, 0.15654104948043823, -0.14145538210868835, 
    0.17733684182167053, -0.039905015379190445, 0.06285128742456436, 
    0.14396163821220398, -0.09783713519573212, -0.02108626812696457, 
  
    -0.017409075051546097, -0.08001625537872314, -0.09704278409481049, 
    -0.03516977280378342, -0.1623096764087677, -0.04007337987422943, 
    0.10577838122844696, -0.04593910276889801, -0.21582841873168945, 
  
    -0.0746813416481018, 0.18335111439228058, 0.05433996394276619, 
    0.21366368234157562, -0.011189726181328297, -0.1885196566581726, 
    0.16808933019638062, 0.12649382650852203, -0.2633097171783447, 
  
    0.05806952342391014, 0.11767914146184921, 0.08420003205537796, 
    0.12825213372707367, 0.08958485722541809, -0.15949152410030365, 
    0.22734186053276062, -0.0038885991089046, -0.25263717770576477, 
  
    -0.06641959398984909, 0.0864909365773201, 0.052169203758239746, 
    0.077725850045681, 0.009930828586220741, 0.11569702625274658, 
    0.23560918867588043, -0.20730580389499664, -0.18990673124790192, 
  
    -0.10025981813669205, -0.22671818733215332, 0.031247127801179886, 
    -0.16830196976661682, -0.11323568969964981, -0.11040302366018295, 
    -0.3011111617088318, 0.2245347946882248, -0.3005177676677704, 
  
    0.13712741434574127, 0.13717466592788696, 0.024230116978287697, 
    0.18296609818935394, -0.09839547425508499, -0.08144281804561615, 
    0.1759488582611084, -0.20678623020648956, -0.1963610202074051, 
  
    0.10577818006277084, 0.004696784541010857, 0.1905076801776886, 
    0.0802382081747055, -0.1577376276254654, -0.04321152716875076, 
    0.20913536846637726, -0.31713658571243286, 0.023057354614138603, 
  
    0.02766549028456211, -0.18114350736141205, 0.35828897356987, 
    -0.42718663811683655, -0.22930487990379333, -0.08694083988666534, 
    -0.5562787055969238, 0.07982197403907776, 0.0512516014277935, 
  
    -0.1261473000049591, 0.1833416074514389, 0.03687946870923042, 
    0.19022759795188904, -0.06799789518117905, 0.24070829153060913, 
    0.5506708025932312, 0.024303467944264412, -0.07252980768680573, 
  
    0.3751556873321533, -0.019307371228933334, -0.21815252304077148, 
    -0.2398751825094223, -0.20167069137096405, 0.09718149900436401, 
    -0.18515823781490326, -0.699320375919342, 0.10124459862709045, 
  
    -0.32596778869628906, 0.054059818387031555, 0.027853045612573624, 
    -0.15645384788513184, -0.2553841173648834, 0.12249557673931122, 
    0.3761289119720459, 0.026093613356351852, -0.39582157135009766, 
  
    -0.02444644644856453, 0.04595610126852989, -0.03462441638112068, 
    0.1253151297569275, 0.15072543919086456, 0.048064813017845154, 
    0.17532631754875183, 0.07910232990980148, -0.23261569440364838, 
  
  };
  static filter_t filter22 = {16, 3, weights22, 0.17404383420944214};
  filtros[22]=filter22;
    
  static const float weights23[]={
    -0.1613306701183319, -0.3275132477283478, -0.15577426552772522, 
    -0.07259641587734222, -0.1945571005344391, -0.02500416338443756, 
    0.24437227845191956, -0.040849972516298294, -0.6082072854042053, 
  
    0.008462784811854362, -0.11391894519329071, -0.19875524938106537, 
    0.034583501517772675, -0.19596178829669952, 0.11721791326999664, 
    0.26715871691703796, 0.1160215362906456, 0.04241525009274483, 
  
    0.19327431917190552, -0.08168067783117294, 0.006105729378759861, 
    -0.22998405992984772, -0.20830576121807098, -0.27556562423706055, 
    -0.3647601008415222, -0.19471809267997742, 0.003118994412943721, 
  
    -0.12286984920501709, -0.22434261441230774, 0.13565881550312042, 
    -0.5057872533798218, 0.0431235209107399, -0.2423659712076187, 
    -0.2596265971660614, 0.10820896178483963, -0.11979521811008453, 
  
    0.10086647421121597, 0.07022256404161453, 0.05633554980158806, 
    -0.06731478869915009, -0.05748722329735756, 0.10897764563560486, 
    0.0535210445523262, -0.0019610354211181402, 0.11841084808111191, 
  
    0.08852946013212204, -0.11662061512470245, -0.007590746507048607, 
    0.19167843461036682, -0.1015583723783493, -0.00045203763875178993, 
    -0.05249513313174248, 0.13064028322696686, -0.02967946231365204, 
  
    -0.02423987351357937, -0.09993662685155869, 0.06870065629482269, 
    0.15575222671031952, -0.08402584493160248, 0.1475805938243866, 
    0.17801755666732788, 0.06077380105853081, 0.06922610104084015, 
  
    -0.02736617997288704, -0.056365519762039185, -0.012829690240323544, 
    -0.11424664407968521, 0.014560150913894176, 0.050459541380405426, 
    -0.20461207628250122, -0.14547352492809296, -0.2109619826078415, 
  
    -0.1106448695063591, -0.20574665069580078, 0.13945519924163818, 
    -0.13570651412010193, -0.42911210656166077, -0.40647628903388977, 
    -0.03798132762312889, -0.07405248284339905, 0.0597497820854187, 
  
    0.050374407321214676, -0.10873886942863464, -0.017635557800531387, 
    0.1181364431977272, -0.008370526134967804, -0.012470497749745846, 
    -0.0049957274459302425, -0.03848276287317276, -0.2466515749692917, 
  
    -0.14324159920215607, -0.057664599269628525, -0.22010232508182526, 
    -0.33355239033699036, -0.5246649384498596, -0.07340454310178757, 
    -0.14044193923473358, -0.15407651662826538, 0.10454265028238297, 
  
    0.12027212232351303, 0.00692687276750803, 0.2109142690896988, 
    0.06742768734693527, -0.00558133190497756, -0.2654816508293152, 
    -0.005983541253954172, -0.14326317608356476, 0.29094353318214417, 
  
    0.2463041990995407, -0.3499268591403961, -0.4266059994697571, 
    -0.13432416319847107, -0.15418694913387299, 0.17598839104175568, 
    0.1339203417301178, 0.04355703294277191, 0.19938069581985474, 
  
    0.186818465590477, 0.13816587626934052, -0.018672237172722816, 
    -0.4174991548061371, -0.019615624099969864, 0.22511805593967438, 
    0.052758969366550446, 0.04215222969651222, -0.009084186516702175, 
  
    -0.25598666071891785, -0.015968533232808113, -0.2480192482471466, 
    -0.356035441160202, -0.08774483948945999, -0.005942083895206451, 
    -0.2148764729499817, 0.10678645968437195, -0.3009580969810486, 
  
    -0.08435983210802078, -0.05287698283791542, -0.09500418603420258, 
    0.09262639284133911, 0.007094085682183504, 0.190972238779068, 
    0.16502706706523895, 0.17069266736507416, -0.04861097410321236, 
  
  };
  static filter_t filter23 = {16, 3, weights23, 0.2813301384449005};
  filtros[23]=filter23;
    
  static const float weights24[]={
    0.08776523917913437, -0.10702098160982132, 0.029049720615148544, 
    -0.0389772430062294, -0.03025377355515957, -0.06287840008735657, 
    0.004599465057253838, 0.010399384424090385, -0.10204235464334488, 
  
    -0.04133448377251625, 0.04621834307909012, -0.05982992425560951, 
    0.09929200261831284, -0.059079017490148544, 0.061141256242990494, 
    0.01596054434776306, 0.07112561166286469, -0.09771416336297989, 
  
    -0.008100044913589954, -0.07291000336408615, 0.10970024019479752, 
    -0.09157947450876236, 0.027651183307170868, -0.06254938989877701, 
    0.023664096370339394, 0.03527152165770531, 0.08900769054889679, 
  
    -0.012307414785027504, 0.09193344414234161, -0.08985478430986404, 
    -0.024547992274165154, -0.0806482583284378, -0.06976470351219177, 
    -0.11866757273674011, -0.04801197350025177, -0.05553283914923668, 
  
    0.09321688860654831, -0.004169689957052469, 0.057249292731285095, 
    0.0565338060259819, -0.12384132295846939, 0.0068062832579016685, 
    -0.10950053483247757, -0.05358373746275902, 0.005883705802261829, 
  
    -0.05025902017951012, 0.05590905621647835, -0.1114664301276207, 
    0.06584363430738449, 0.07392619550228119, 0.08592388033866882, 
    -0.03252479434013367, -0.09011610597372055, -0.04285969212651253, 
  
    -0.11913563311100006, 0.018916592001914978, 0.0010975837940350175, 
    -0.1140623614192009, -0.08760430663824081, -0.02776486426591873, 
    -0.09432399272918701, 0.09551486372947693, -0.06644995510578156, 
  
    0.04821070656180382, 0.038788773119449615, -0.01651424914598465, 
    -0.084366075694561, -0.09140808135271072, 0.011893410235643387, 
    -0.1016799807548523, -0.07753794640302658, -0.02747977338731289, 
  
    -0.001721169683150947, -0.04930732026696205, 0.014553979970514774, 
    -0.10519003868103027, -0.10608302801847458, -0.007004049140959978, 
    0.05009341612458229, -0.05768937990069389, 0.041075825691223145, 
  
    0.07471539080142975, -0.0024519634898751974, -0.06432528048753738, 
    -0.007430322002619505, -0.019218966364860535, -0.07221180200576782, 
    -0.09591907262802124, 0.1137232854962349, 0.09487432986497879, 
  
    0.04850957915186882, -0.09337978065013885, 0.08702320605516434, 
    -0.07810148596763611, 0.011609239503741264, 0.04417119920253754, 
    -0.04082123190164566, 0.04286578670144081, -0.04824870824813843, 
  
    0.06339813768863678, -0.12032804638147354, 0.04386866092681885, 
    -0.019232386723160744, 0.053376443684101105, -0.08764925599098206, 
    0.02444460242986679, -0.040935348719358444, -0.12602631747722626, 
  
    -0.11994823813438416, -0.09476230293512344, -0.0003314737696200609, 
    0.05908972769975662, 0.10033907741308212, -0.026447901502251625, 
    -0.053745441138744354, -0.0015885508619248867, 0.010800901800394058, 
  
    -0.056879255920648575, 0.10497722774744034, -0.10649573057889938, 
    0.0822228416800499, 0.030189935117959976, -0.09113474190235138, 
    0.09076821058988571, 0.06704363226890564, -0.07999439537525177, 
  
    -0.0016975649632513523, -0.006510609295219183, 0.07065580785274506, 
    -0.1017957478761673, 0.05316205322742462, 0.06735409796237946, 
    0.009801636449992657, -0.052668966352939606, 0.10659884661436081, 
  
    -0.08056800812482834, -0.0860535278916359, -0.11914323270320892, 
    -0.030077604576945305, -0.07306694984436035, 0.10974027961492538, 
    -0.08316493779420853, -0.05240112170577049, -0.10383103042840958, 
  
  };
  static filter_t filter24 = {16, 3, weights24, -0.002340554026886821};
  filtros[24]=filter24;
    
  static const float weights25[]={
    -0.07163363695144653, 0.12746059894561768, 0.05678654462099075, 
    -0.16222812235355377, 0.06997984647750854, -0.0564255453646183, 
    -0.2383047342300415, -0.4163353443145752, -0.31187310814857483, 
  
    0.12038185447454453, -0.1473965048789978, 0.1124856024980545, 
    -0.102388396859169, -0.0497286319732666, 0.1977061629295349, 
    -0.2379804253578186, 0.12077215313911438, -0.07327903807163239, 
  
    -0.0911887064576149, -0.019787762314081192, -0.07036392390727997, 
    -0.03221835941076279, -0.05462285876274109, -0.01719892956316471, 
    -0.21446621417999268, -0.16266602277755737, 0.349701464176178, 
  
    -0.05932559818029404, 0.3041931688785553, 0.1464592069387436, 
    0.06482263654470444, -0.03791094571352005, 0.09585092216730118, 
    0.04326910153031349, -0.05652830749750137, 0.08192327618598938, 
  
    -0.03777524083852768, -0.04530692100524902, 0.10654128342866898, 
    -0.03122848831117153, 0.10244543850421906, 0.13708849251270294, 
    0.05508606880903244, 0.1764177829027176, -0.030427752062678337, 
  
    -0.12743127346038818, -0.10627966374158859, 0.1861034333705902, 
    -0.13929599523544312, 0.20762701332569122, -0.011465989984571934, 
    -0.09915809333324432, 0.07535678148269653, 0.06427737325429916, 
  
    -0.12997673451900482, -0.023282133042812347, 0.1351538449525833, 
    -0.03877510502934456, 0.005235076881945133, -0.0106910839676857, 
    0.022233664989471436, 0.09259455651044846, -0.07739677280187607, 
  
    0.012037394568324089, 0.020691702142357826, 0.17848800122737885, 
    -0.03827318549156189, 0.059144288301467896, 0.16160789132118225, 
    0.07206711918115616, 0.02196706086397171, 0.00610285485163331, 
  
    0.0011863185791298747, 0.22712062299251556, 0.18944279849529266, 
    0.3191080093383789, 0.29963311553001404, 0.36925312876701355, 
    -0.06799698621034622, 0.35934388637542725, 0.2507951855659485, 
  
    -0.120136559009552, 0.1625659167766571, -0.021993881091475487, 
    -0.09190750867128372, 0.1563202142715454, 0.08963541686534882, 
    -0.053928881883621216, -0.14048653841018677, -0.14522229135036469, 
  
    -0.05664408951997757, 0.21842040121555328, 0.1808699369430542, 
    -0.038325730711221695, -0.046431735157966614, -0.20222054421901703, 
    0.01624230295419693, -0.1511177271604538, -0.04959538206458092, 
  
    -0.11959134787321091, 0.01196256186813116, -0.0010527108097448945, 
    -0.048937276005744934, 0.12587246298789978, -0.2850566804409027, 
    0.027657553553581238, -0.09774382412433624, -0.06348247081041336, 
  
    -0.09104347974061966, -0.001215704600326717, 0.2241014987230301, 
    -0.12254675477743149, 0.20592769980430603, 0.018063800409436226, 
    -0.32971322536468506, 0.24928422272205353, 0.1537233591079712, 
  
    -0.03707986697554588, -0.2142784148454666, -0.4633968472480774, 
    0.1877451241016388, -0.1882290244102478, -0.32568901777267456, 
    0.10494033247232437, -0.5519795417785645, -0.16723652184009552, 
  
    0.14470702409744263, 0.016606204211711884, 0.07444292306900024, 
    0.08882538229227066, 0.2859107553958893, 0.28280362486839294, 
    -0.08470570296049118, 0.050458163022994995, -0.07984527945518494, 
  
    0.06696705520153046, -0.025408931076526642, 0.02360098622739315, 
    -0.18788474798202515, 0.15982577204704285, 0.14636313915252686, 
    -0.14111708104610443, 0.018114209175109863, -0.06831991672515869, 
  
  };
  static filter_t filter25 = {16, 3, weights25, -0.06653264909982681};
  filtros[25]=filter25;
    
  static const float weights26[]={
    0.18321493268013, -0.15521128475666046, 0.005867694038897753, 
    0.2558499574661255, 0.3351512849330902, 0.1865672469139099, 
    0.5366095304489136, 0.5176026225090027, -0.012881194241344929, 
  
    0.08981960266828537, 0.02110152877867222, 0.007492667064070702, 
    0.08566107600927353, -0.01489201933145523, 0.09409602731466293, 
    -0.27298083901405334, -0.09255274385213852, -0.19581195712089539, 
  
    0.4078253507614136, -0.10410697013139725, 0.34090304374694824, 
    -0.06383784860372543, -0.3238012492656708, -0.2443787008523941, 
    -0.15512347221374512, 0.01509821880608797, 0.07748560607433319, 
  
    0.038294605910778046, -0.041164763271808624, 0.021324578672647476, 
    0.02101810835301876, -0.3905446231365204, 0.11394163966178894, 
    -0.04473842307925224, -0.29739221930503845, 0.16522328555583954, 
  
    -0.015183934010565281, -0.03294900059700012, 0.05529739707708359, 
    -0.04904290288686752, -0.002421941375359893, 0.25914818048477173, 
    -0.14960740506649017, -0.2324867993593216, -0.11596085131168365, 
  
    0.13760286569595337, 0.017738506197929382, -0.03507028892636299, 
    -0.27474427223205566, 0.12671133875846863, 0.04380616918206215, 
    -0.05929047614336014, -0.2545623481273651, 0.11319806426763535, 
  
    -0.09352967143058777, -0.10580667108297348, 0.2077409029006958, 
    -0.0640864372253418, -0.13083606958389282, 0.18753555417060852, 
    -0.31330499053001404, -0.3104972541332245, 0.01959216594696045, 
  
    -0.04147091880440712, -0.024097539484500885, -0.14986418187618256, 
    0.12496505677700043, -0.0655992403626442, 0.03071441501379013, 
    -0.3014819324016571, -0.15501858294010162, -0.7932194471359253, 
  
    0.0837835893034935, -0.08478696644306183, 0.10666497051715851, 
    0.09669306129217148, 0.2288866937160492, -0.08446969836950302, 
    0.1562170535326004, -0.2570004463195801, -0.009804031811654568, 
  
    0.05731803923845291, -0.07418715953826904, 0.012101415544748306, 
    0.03525024279952049, -0.21012987196445465, 0.23105280101299286, 
    -0.43349045515060425, -0.46339577436447144, -0.19727012515068054, 
  
    -0.19202415645122528, -0.2994278073310852, -0.19153840839862823, 
    0.1496535837650299, -0.083088718354702, -0.0014992558863013983, 
    0.2597973346710205, 0.2106400728225708, 0.3858805000782013, 
  
    0.25208309292793274, -0.035133495926856995, -0.41140028834342957, 
    0.15844498574733734, -0.23662936687469482, -0.31036731600761414, 
    0.33078819513320923, -0.01060069166123867, 0.5179532766342163, 
  
    0.0410427525639534, 0.08332034945487976, -0.15733934938907623, 
    -0.067491315305233, 0.13596035540103912, 0.18214817345142365, 
    -0.2185223400592804, -0.3531484603881836, -0.006030060350894928, 
  
    0.09674695879220963, -0.20555993914604187, 0.2368202805519104, 
    -0.0273879487067461, 0.005955229513347149, 0.29093897342681885, 
    0.3186020851135254, 0.7670353055000305, 0.5432758331298828, 
  
